the -0.010167 0.020194 0.214730 0.172890 -0.436590 -0.146870 1.842900 -0.157530 0.181870 -0.317820 0.068390 0.517760 -6.337100 0.480660 0.137770 -0.485680 0.390000 -0.001951 -0.102180 0.212620 -0.861460 0.172630 0.187830 -0.842500 -0.312080
to 0.282280 0.019558 0.115090 -0.392420 -1.050300 -0.542780 1.135700 -0.342510 0.806360 -0.473590 -0.771940 -0.736890 -6.261900 -0.349020 -0.355320 -0.601480 -0.054534 -0.670570 -0.399720 -1.324000 -0.437650 0.300450 0.214300 0.254220 -0.266740
a 0.212940 0.310350 0.176940 0.874980 0.067926 0.591710 -0.098218 1.589600 -0.428000 -1.365500 -0.152780 -2.501000 -5.565200 -0.102320 0.395770 0.155500 -0.551810 0.346710 -0.573790 -0.307170 0.043623 -0.397070 0.645510 -0.335370 0.020467
vaccine 0.677820 1.250900 -0.909830 0.105000 0.894760 -0.829230 0.471060 -1.821300 1.098100 0.347060 1.048200 0.038598 -0.822080 0.400720 0.922390 -0.383920 0.085197 0.877400 1.922100 -0.700110 -0.847040 1.507600 0.030670 -0.366940 0.440430
of 0.325430 -0.089637 -0.147330 0.428500 -0.092613 -0.179380 1.283500 -0.597140 -0.281340 -0.048954 0.548270 0.694100 -6.120000 0.672400 0.018078 -0.241650 0.503420 0.653250 -0.206740 0.276390 -0.790970 0.104320 -0.617500 -0.545920 -0.069893
is -0.125320 -0.202070 -0.126720 -0.574740 -0.303130 -0.029884 1.179200 -0.149100 -0.713150 -0.121120 0.406520 1.478400 -5.995000 -0.216170 0.478060 0.434480 0.134890 0.889610 -0.569260 0.330940 0.136610 0.658440 -0.417660 0.251640 -0.055809
and -0.812160 -0.286050 0.062502 -0.036869 -0.611180 -0.155680 1.625000 -0.426020 0.197300 -0.194180 0.532670 0.645920 -6.133600 -0.330900 -0.001728 -0.151730 0.203830 -0.774960 0.176290 -0.108840 -0.312340 0.240100 -0.360970 -0.049996 -0.724700
in -0.329290 -0.160370 0.107850 -0.396100 -0.488270 -0.175280 0.230560 -0.491150 -0.065798 0.843820 0.380910 0.463770 -5.954500 0.575950 -0.182420 0.364940 -0.004254 0.966870 -1.567400 -0.404540 -0.795570 -0.005054 0.021972 -0.736380 0.652770
for -0.217490 0.451830 -0.232110 -0.277810 -0.067977 -0.639510 1.121800 -0.375360 0.186760 -0.508640 0.016423 -0.133290 -5.903000 0.145960 -0.067031 -0.661990 -0.173620 -0.872810 -0.497710 -0.552890 -1.051500 -0.184840 -0.308480 -0.044780 -0.243580
that 0.208230 0.224760 -0.070949 0.239170 -0.360760 -0.234430 1.863300 -0.457300 -0.408940 -0.055079 -0.115990 1.056800 -6.261400 -0.249120 0.371230 0.218910 0.679260 -0.355850 0.184410 -0.118210 0.588060 0.599160 0.408830 0.158740 -0.553380
you -0.415860 0.325480 -0.087621 0.201800 -0.800170 -0.344180 2.143100 0.371880 -0.940900 0.242830 -0.863960 0.638580 -6.017100 -0.540810 -0.433050 0.095707 0.379710 -1.143200 0.113820 -0.383610 0.417580 0.081476 -0.026590 0.754380 -0.771780
with -0.947600 0.325330 0.239670 0.296090 -0.098118 -0.108920 1.350300 -0.014157 0.157390 0.136040 -0.068480 0.687010 -5.666600 -0.413980 0.229360 -0.332500 0.495920 -0.742030 -0.032459 0.402530 -1.090700 -0.114690 -0.255270 -0.400690 -0.476690
not 0.353770 0.326040 -0.226820 -0.324120 -0.185550 0.148600 1.391400 -0.651540 -0.381970 0.171290 -0.434050 0.391540 -5.791800 -0.202010 -0.232160 -0.106380 0.070835 -0.214600 -0.094385 -1.085100 0.616830 0.821840 -0.351020 0.191770 -0.438180
are 0.186600 -0.098326 -0.122680 -0.938220 -0.401610 0.638300 1.668600 -0.680360 -0.983590 -0.079512 0.380780 0.039076 -5.414700 0.028290 -0.470070 0.113770 -0.527250 -0.793120 0.582030 -0.618290 0.370250 0.226100 -0.730140 -0.101900 -0.213820
it 0.167580 0.214340 -0.093086 0.163790 -0.600010 -0.037103 1.857700 -0.243060 -0.448640 0.287340 -0.436090 1.083900 -6.038500 -0.148720 0.318430 0.082630 0.475620 -0.500900 -0.099384 -0.180340 -0.106140 0.152380 0.325320 0.737950 -0.408590
have -0.058224 0.796510 -0.060888 -0.584590 -0.562280 -0.072496 1.859200 -0.423940 -0.560510 -0.057096 0.444060 0.313990 -5.885600 0.061965 -0.207020 -0.046447 0.752870 -0.584680 0.250530 -0.723990 -0.131220 0.378220 -0.176310 0.430370 -0.453150
be -0.343500 1.013800 -0.039231 -0.617390 -0.130000 0.659730 1.186100 -0.117000 -0.614210 0.399450 -0.338340 0.546430 -5.419900 0.317140 -0.629720 -0.496830 0.381040 -0.529590 -0.512740 -0.882740 0.524000 1.032000 -0.624160 0.120280 -0.106960
on 0.212280 -0.243500 -0.570130 0.337780 -0.860720 -0.177100 0.868910 -0.111030 0.534670 -0.003650 0.110680 0.446550 -5.648600 -0.033026 0.362450 0.744070 -0.166140 -0.618510 -1.832700 0.513210 -0.319330 -0.684380 0.591450 -0.556470 -0.310490
this -0.178950 0.384060 0.073035 -0.323630 -0.092441 -0.407670 2.100000 -0.113630 -0.587840 -0.170340 -0.643300 0.723880 -5.783900 -0.104060 0.521520 -0.113140 0.595540 -0.475870 -0.455100 0.084431 -0.458200 -0.167270 0.545940 0.035478 -0.160730
they 0.550650 0.654010 -0.019103 -0.563750 -0.582730 0.246310 1.421200 -1.080900 -0.467390 0.237740 -0.032032 0.537420 -6.016500 -0.065557 -0.590130 0.524980 0.148970 -0.837250 0.612250 -0.689260 0.693840 0.675230 0.188450 -0.123020 -0.304550
will 0.057466 0.178900 -0.627780 -0.861660 -0.976790 -0.504730 1.348000 -0.578430 -0.091304 -0.558610 0.474650 0.789050 -5.661200 0.284820 -0.318080 -0.143050 -0.082890 -0.411720 -0.153620 -1.308300 0.081742 0.189470 -0.075557 0.241920 0.002247
from -0.618240 -0.073506 0.332020 0.236540 -0.499870 -0.567600 1.173500 -0.286480 -0.012922 0.038743 0.373370 0.510730 -5.370700 0.234530 0.155340 -0.631220 0.150940 -0.201160 -0.293690 -0.213340 -0.719560 -0.749230 0.033165 -0.745080 -0.208830
people 0.615310 0.408950 -0.342240 0.210940 -0.046403 0.297440 1.948500 -0.912470 -0.857720 0.572930 -0.995370 -0.158580 -5.432800 0.115780 -0.270310 0.352070 0.166240 -0.913640 0.693300 -0.650350 0.773530 -0.087782 -0.432280 -0.999820 -0.680770
has 0.000946 -0.084355 0.199940 -0.776100 0.018379 -0.204880 0.903620 0.475040 -0.846970 -0.732960 2.032500 -0.170080 -5.216000 0.629330 0.833840 -0.094651 0.620860 0.845230 0.422270 -0.763150 0.795140 0.400080 0.278580 0.201680 -0.718590
as 1.618800 -1.103500 0.426580 0.317030 -0.114020 0.592750 0.499990 -0.696290 0.410890 -1.368500 -0.318230 -1.113100 -5.152000 0.192040 -0.423960 -0.519190 -0.800090 -0.176980 -0.511310 -0.856950 0.093274 0.331350 -0.288330 -0.145870 -0.629650
get -0.333440 1.267800 0.044720 -0.670700 -0.207900 0.122890 1.369600 -0.229810 -0.536450 -0.183300 -0.133940 0.630010 -5.657700 -0.661580 -0.268560 -0.147200 0.718350 -1.159100 -0.055771 -0.873200 -0.025146 0.306900 1.078700 0.389230 -0.028963
& -0.471220 0.056607 -0.292930 0.148450 -0.388060 0.987290 0.704080 1.187500 -0.116850 -0.022892 0.774260 0.541950 -4.711400 -0.500270 -0.441360 -0.293720 -0.315540 -0.582850 -0.164300 0.100020 -0.145040 -0.797160 -0.726100 0.225200 -0.175830
no 1.272200 0.221540 0.139500 0.508970 0.116630 0.102910 0.214480 2.206400 -0.562300 -1.063300 0.039293 -2.937100 -4.509700 -0.518960 1.011600 0.140030 -0.329550 0.076449 1.171200 -0.662660 0.532550 0.072198 1.184000 0.957360 0.207460
or 0.068031 -0.009674 -0.167320 -0.034268 -0.211750 0.018022 1.378200 -0.375330 0.477210 0.395720 0.076905 0.426520 -5.257200 -0.392190 -0.056925 0.078000 0.325290 -1.135200 0.046925 -0.248630 -0.216160 0.269500 -0.154920 0.015191 -0.632370
we 0.496530 1.143500 -0.286090 -0.633780 -1.234700 -0.096415 0.814660 0.314060 -0.810640 0.430280 -0.108440 0.234070 -5.535900 0.045617 -0.157320 0.748550 0.353150 -0.111690 -0.120480 -0.139650 -0.277110 0.343420 -0.403770 0.619240 0.539400
if 0.182430 0.705340 -0.342090 -0.107790 -0.727210 -0.588020 1.745700 -0.136660 -0.615760 0.153360 -0.190190 0.702820 -5.725000 -0.209010 -0.336920 0.169160 0.358720 -0.987100 0.454950 -0.366070 0.629730 0.110660 0.313150 0.087870 -0.886790
after -0.460620 0.532530 0.696470 -0.298900 -0.214790 -0.392980 1.401000 -0.435220 -0.118680 0.372740 0.419040 0.517000 -4.640300 0.928000 0.997170 -0.255260 0.251020 -0.230920 -0.693500 -1.395600 -0.587250 0.252690 0.441860 -0.573120 -0.174790
about 0.365420 0.580040 0.194810 0.408050 -0.224040 -0.029776 1.740700 -0.485180 -0.252130 -0.101100 -0.574000 0.748420 -5.524500 -0.284750 0.469220 0.082863 -0.103030 -0.402530 -0.243560 -0.457260 0.308390 0.098568 -0.591590 -0.464830 -0.695460
take -0.203530 1.014800 -0.183630 0.329510 -0.612980 0.126280 1.502000 -0.065550 0.101980 -0.045082 -0.334030 0.110000 -5.008200 -0.127340 -0.007990 0.004605 0.302460 -1.090000 -0.260540 -0.874100 -0.310700 0.177950 0.531010 0.233970 -0.334960
who 0.021722 0.911510 -0.110980 -0.321900 -0.525470 -0.704690 1.584600 -0.160790 -0.642150 -0.236960 0.315340 0.461670 -5.699900 -0.155080 -0.787770 0.109950 0.018287 -0.604210 0.545160 -0.598420 1.350400 0.391090 -0.250170 -0.375330 -0.623300
but 0.171290 -0.012287 -0.329580 -0.165190 -0.546610 0.176830 1.757700 -0.637380 -0.476220 0.138920 -0.432540 0.789000 -5.721200 0.068779 0.374390 0.517780 0.331000 -0.745170 -0.209350 -0.215670 0.664930 0.528740 0.106600 0.477770 -0.484080
was -0.160630 0.021235 0.956950 -1.064200 -0.424960 0.070767 0.884730 -0.388350 -0.965850 -0.032367 0.243100 1.468200 -5.735700 -0.316110 0.590850 0.335690 0.923690 1.045700 -0.968560 -0.304440 0.650330 0.940530 -0.003684 0.149690 0.384080
all -0.182320 0.969970 0.321740 -0.074793 -0.116180 0.095187 1.498600 -0.413570 -0.862980 0.420670 -0.531250 0.107970 -5.560000 0.259130 -0.583890 0.122410 -0.151680 -0.719830 -0.166050 -0.092514 -0.340990 0.124640 0.086193 -0.141100 -0.186560
your -0.486660 0.320140 -0.277030 1.092800 0.457730 -0.379230 1.960200 -0.350990 -0.342860 0.268060 -0.498520 0.345170 -6.087700 -0.189070 -0.452470 0.026142 0.568550 -0.646530 0.212830 -0.150510 -0.595930 -0.314070 0.286900 0.275010 -1.447400
by -0.471330 -0.333200 0.154310 0.670520 -0.125190 -0.343170 0.669310 0.586220 0.220840 -0.230870 -0.216980 1.144100 -4.927000 -0.235650 -0.158650 -0.619290 0.336090 0.384360 0.294830 -0.361560 -0.801460 -0.794420 -0.351960 -0.961930 -0.025164
face 0.590500 -0.873640 0.276160 0.642900 0.388880 0.064158 0.543100 0.081105 -0.159980 -0.198920 -0.362100 -0.744790 -4.236900 -1.105200 0.103440 0.174310 -0.398740 -0.477100 -1.017100 -0.679290 0.312590 0.435240 1.177300 0.217210 -0.365410
vaccines 0.125650 0.995260 0.057387 0.372380 -0.340910 -0.814870 0.511010 -1.417500 0.009216 -0.739150 0.974480 -0.160090 -1.300500 -0.379890 0.331280 0.252750 -0.224590 0.181610 1.572300 -0.294200 -1.292100 0.374680 -0.682980 -0.692480 0.688150
so 0.395430 -0.607060 0.344480 -0.937830 -0.304660 0.461510 1.521400 0.070674 -0.360750 0.029852 -1.100500 -0.053799 -5.079000 -0.734240 -0.403140 -0.100830 -0.002216 -0.471210 -0.886510 -1.173700 0.225140 0.878420 -0.105340 1.270000 -0.229510
their 0.260770 0.462110 -0.002079 0.702060 0.404340 -0.072777 1.167300 -1.075600 -0.181000 0.199970 -0.076649 -0.028095 -5.830600 0.578910 -0.628180 0.067286 -0.083564 -0.903150 0.408300 -0.362650 -0.924630 0.317410 -0.216760 -1.084000 -1.459700
been -0.512320 1.277100 0.806390 -1.203700 -0.178720 0.458000 0.992870 -0.559610 -1.218000 0.174440 0.390020 1.006800 -5.282300 0.345150 0.204510 0.152270 0.506620 0.589880 -0.312140 -1.066300 0.574170 0.543280 0.023205 0.092225 -0.002089
at -1.020600 -0.128340 1.093700 -0.744740 -0.515480 -0.506330 1.048900 -0.181610 0.868510 0.382520 -0.342130 -0.079467 -4.930500 0.917870 0.046519 -0.833930 0.776920 -0.704710 -0.998190 -0.739070 -0.573970 -0.256100 -0.241040 -0.588050 0.486380
- 0.771700 -1.060200 -0.343830 -0.092640 0.031247 0.102740 1.182200 2.077400 0.209920 0.881880 0.656960 0.041836 -3.373600 -0.710650 0.041693 -1.535000 -0.556270 0.645870 -0.724300 -0.399000 -0.311720 -0.588340 -0.110270 -0.067876 1.072300
an 0.542440 0.457530 -0.457870 0.066361 0.589160 0.579790 0.498530 0.449210 0.396100 0.832260 0.248020 0.828830 -4.596400 0.319830 -0.398490 -0.391690 1.001800 0.335180 -1.109600 -0.801480 -0.501840 0.853880 -0.868570 -0.180020 -0.238870
can 0.187250 0.368690 -0.431710 -0.008371 -0.435490 -0.045851 1.342400 -0.816200 -0.360350 0.408190 0.127150 0.232140 -5.304800 -0.098616 -1.114600 -0.214400 0.245560 -0.881670 -0.144210 -0.965190 0.458440 0.548580 -0.279950 0.232220 -0.111150
had 0.096350 0.809720 0.776650 -0.507540 -0.537730 0.192000 0.812960 -0.487740 -1.173500 0.010252 0.924470 1.010400 -5.470900 -0.000562 0.450810 0.452170 1.509000 0.569180 -0.346330 -0.152130 0.127670 0.852550 0.155160 0.453840 -0.036114
do 1.647700 0.129030 0.769110 -0.030854 0.275060 -0.492980 0.820600 -0.125590 0.570680 -0.798980 -1.691200 -1.765600 -5.318600 -1.251100 -0.730130 -0.906970 -1.093200 -0.536340 0.179670 -1.624700 -0.002918 1.318400 0.455940 0.368200 0.875910
one 0.396570 0.156530 0.506760 -0.039995 -0.117700 -0.011625 1.767700 0.335040 -0.847480 -0.279690 0.036325 -0.146000 -5.278800 0.053348 -0.604370 0.262850 0.153340 -0.315980 -0.184370 -0.216450 -0.095925 -0.075690 0.181850 -0.185190 -0.334990
just -0.355180 0.480300 0.496810 -0.763790 -0.645880 0.083208 1.788900 -0.354700 -0.449700 0.022174 0.180260 0.815390 -5.702400 -0.759630 -0.066477 0.522030 0.504330 -0.424710 -0.374140 -0.671910 0.488040 0.436520 0.299540 0.438550 -0.409540
what 0.529200 0.344130 -0.055991 0.154680 -0.485480 -0.426180 2.015500 -0.082657 -0.402490 0.066622 -0.560970 0.619530 -5.614200 -0.400260 0.546120 -0.021634 0.469330 -0.333730 0.096102 0.095193 0.539750 0.336770 -0.281790 0.507440 -0.517840
know 0.302600 0.699640 -0.003458 -0.058919 -0.687510 -0.142060 1.947700 0.012731 -0.514570 0.176470 -0.788090 0.520800 -5.536500 -0.581560 0.044223 0.258190 0.467920 -0.810970 0.111210 -0.169010 1.174100 0.486170 -0.027150 0.628260 -0.271930
would -0.109300 0.318850 -0.301860 -0.605400 -0.979790 -0.613320 1.711700 -0.734050 -0.705420 -0.445350 0.575170 0.604970 -5.680400 -0.425420 -0.189380 0.093922 0.463160 -0.752340 0.332930 -0.765650 0.542160 0.530680 0.356440 0.281210 -0.385270
more 0.138040 0.273480 -0.723130 0.115250 0.376920 0.683350 1.439900 -0.285100 -0.629130 -0.321720 -0.143300 0.263020 -5.060900 0.486510 -0.325860 -0.446790 0.060050 -0.825720 0.306970 -0.670460 -0.495920 -0.318460 -0.401500 0.352510 -0.762060
my -0.741750 0.549420 0.674900 0.679240 0.131150 -0.285800 1.922700 0.119750 -0.623510 0.393040 -0.878840 0.395750 -5.987900 -0.496590 -0.265350 -0.040490 1.124700 -0.752110 -0.380150 0.495670 -0.533430 0.056762 0.696970 0.533840 -0.708070
like 0.068004 0.107370 0.612920 0.354460 -0.285760 0.440950 1.757400 -0.007906 -0.665610 0.204330 -0.514210 0.467970 -5.349000 -0.997460 -0.120690 0.114330 0.373550 -0.972190 -0.089747 -0.149820 0.341410 0.589870 0.512260 -0.065090 -0.068817
out -0.286530 0.605010 0.625920 -0.034889 -0.105080 0.063965 1.152700 -0.185020 -0.221280 0.295630 -0.061197 0.719730 -5.445100 -0.055855 0.078477 -0.009036 0.326050 -0.907710 -0.536890 -0.344740 -0.371300 -0.177210 0.870160 -0.152740 0.026154
up -0.195550 0.823600 0.734570 0.123950 -0.215090 0.510580 1.185900 0.005865 -0.182810 0.351380 -0.426670 0.662380 -5.350600 -0.066143 0.151660 -0.112170 0.259050 -1.228100 -0.632290 -0.491460 -0.285200 0.108160 1.070300 0.118230 -0.010115
than 0.285880 0.033347 -0.139770 0.253500 0.034072 0.593360 1.454100 -0.525290 -0.779940 -0.112340 0.164430 0.599540 -5.072000 0.414630 0.250920 0.066475 0.246250 -0.646120 0.751740 -0.606340 -0.247890 0.676820 -0.246910 -0.274110 -0.685280
virus 0.963350 0.216180 -0.132310 0.620030 1.127200 0.156620 0.194590 0.940570 0.830400 0.877450 0.814270 -0.054227 -1.503900 -0.617200 0.480940 0.651560 0.431360 0.522660 0.640170 -0.664300 -0.089141 0.334440 0.362280 -0.449400 -0.200880
why 0.592120 0.257020 0.198810 -0.254570 -0.606250 -0.265810 1.912100 -0.112760 -0.334400 0.521820 -0.602160 0.539400 -4.990600 -0.835660 0.363080 -0.117190 0.302100 -0.513280 0.069244 -0.324780 0.899810 0.505380 -0.109950 0.144850 -0.705540
any 0.709240 0.862440 -0.446020 0.230640 0.273760 -0.023604 1.184000 -0.792990 -0.442130 -0.345270 -0.123870 -0.037162 -5.311500 0.228330 0.228410 0.197080 0.684160 -0.541200 0.395680 -0.159310 -0.580910 -0.137620 -0.096558 -0.157870 -0.963390
getting -0.696150 1.183600 0.717710 -0.982250 0.355290 0.680340 1.280600 -0.908710 -1.167000 -0.129100 0.027425 0.678850 -5.005900 -0.627070 0.371990 -0.245920 0.491110 -0.491960 0.003804 -1.328100 -0.035287 0.560140 0.796020 -0.070036 -0.405720
only 0.261200 0.671400 -0.136310 -0.510590 -0.320750 0.116260 1.682500 -0.409820 -0.465320 0.083934 0.220830 0.617620 -5.283800 0.141630 -0.498710 -0.001184 0.202020 -0.553780 0.489720 -0.078029 0.085323 -0.053571 -0.088695 0.207590 -0.695120
want 0.203610 0.831280 -0.646530 -0.308870 -1.057200 -0.071749 1.220200 -0.391470 -1.177800 -0.147530 -0.099243 0.457230 -5.494600 -1.115900 -0.856690 0.503540 0.677830 -0.516730 -0.207340 0.000067 -0.195980 0.283440 0.026416 0.644980 0.200460
even 0.493650 0.566640 0.037032 -0.492110 -0.785400 0.730720 0.770530 -0.503230 -1.074700 0.177030 -0.367120 1.037800 -5.484400 -0.347480 -0.064283 1.478200 0.715140 0.200980 -0.226830 -0.551340 -0.066362 0.443660 -0.276730 0.698260 -0.033508
there -0.058699 0.488580 0.238970 -0.030311 -0.535780 0.097463 1.872300 -0.690880 -0.627310 0.329770 -0.352100 0.460120 -5.538300 0.281320 0.364490 0.244310 0.373540 -0.528890 0.052920 -0.216230 0.147570 0.129560 0.039386 0.020024 -0.349110
when -0.261480 0.264400 0.448760 0.159900 -0.476920 -0.319420 2.156100 -0.526340 -0.568540 0.288940 -0.309100 0.694520 -5.600800 -0.184110 0.075871 0.696570 0.359980 -0.647240 0.347930 -0.593300 0.576650 0.305560 0.488150 -0.110320 -0.780190
how 0.503630 0.257190 -0.160620 -0.065956 -0.300250 -0.049450 1.840800 -0.513960 -0.484950 -0.231280 -0.616040 0.590510 -5.567200 -0.567430 0.024598 -0.382700 0.558990 -0.377980 0.214290 -0.416130 0.536260 0.145020 -0.379150 0.204890 -0.756330
being -0.578440 0.395570 0.064884 -0.913930 0.288890 0.536770 1.391800 -0.686720 -1.187300 0.196660 -0.356920 0.823080 -5.252400 -0.133710 -0.122870 0.068774 0.283850 0.226280 0.535600 -1.405700 0.729710 0.774620 -0.561420 -0.704480 -0.692280
should 0.220650 0.706780 -0.252240 -1.040300 -0.532960 -0.545330 1.453500 -0.936440 -0.065135 -0.368580 0.529540 0.486680 -5.476300 -0.349660 -0.108980 0.089568 0.102810 -0.696510 0.119150 -1.078000 0.470200 0.572050 -0.070207 0.097454 -0.365760
make 0.273090 0.609720 -0.509720 0.156910 -0.324310 0.168070 1.735000 -0.026096 0.112300 0.190670 0.040483 0.279170 -4.992000 -0.696340 -0.800950 0.381930 0.474180 -1.458700 0.109630 -0.750600 -0.566820 0.643290 -0.184130 0.623940 -0.287000
he 0.386250 0.322000 0.434580 -0.152630 -0.119050 0.088626 0.462180 0.958740 -1.367900 -0.183210 0.900990 -0.024677 -5.170500 0.268560 0.388290 0.133870 0.843530 0.445900 -0.232070 -0.879000 1.199500 1.198000 0.487880 0.754370 -0.388080
need -0.067028 1.160700 -0.565760 -0.373010 -0.273270 0.020362 1.698200 -0.419900 0.036671 -0.000764 -0.329860 0.129870 -5.244600 -0.863150 -0.339860 -0.012930 0.261550 -1.132400 0.143930 -0.562910 -0.068373 0.124010 0.287980 0.596120 -0.255990
side -0.634580 -0.084383 0.048884 0.067612 0.205470 0.582360 0.935930 -0.396940 0.350780 0.318650 -0.361130 0.511720 -4.391700 0.491980 -0.014622 0.016854 0.412030 -0.565060 0.110540 0.128780 0.052768 0.609950 0.848260 -0.377760 -0.219060
which 0.425140 -0.350530 -0.428670 -0.469910 -0.127890 -0.318740 1.502100 -1.085900 0.153180 0.026868 0.751460 0.450620 -4.980600 0.586900 0.107680 0.425720 0.562220 0.567680 0.695350 -0.117900 0.070862 -0.161140 -0.606600 0.366350 -0.625640
vaccinated -0.844260 0.888420 -0.243520 -0.856890 0.536470 -0.657160 -0.834210 -2.230300 -0.636040 0.387370 0.182130 0.389750 -0.442720 0.193620 -0.084594 -0.647420 0.475080 -0.704440 2.043200 -1.845100 -0.700840 1.545900 -0.052705 -1.179200 0.206890
me 0.588660 0.006041 -0.220220 1.011900 -0.758300 0.120810 -0.025355 1.596000 -1.521000 -1.186700 -0.424680 -2.012800 -5.397700 -1.234300 0.178890 1.349100 -0.011538 -0.063358 -0.186760 -0.188630 0.818190 -0.334650 1.639200 1.418300 0.169190
it. 0.857130 0.632130 -0.062921 1.141200 -1.049100 -0.863720 -1.049000 -1.930500 -0.391680 -0.587350 -1.089700 0.654620 -0.701790 -1.212200 0.239960 -0.402550 0.114260 0.296600 0.944850 -0.856350 -0.632440 0.375590 -0.638980 0.743380 -0.208010
because -0.016895 -0.232240 0.131610 -0.060851 -0.278290 -0.388430 1.995300 -0.741720 -0.967610 0.424660 -0.116850 0.443880 -5.320500 -0.200270 0.289290 0.603420 -0.015802 -0.524570 0.645830 -0.760920 0.198770 0.461810 -0.188800 -0.025484 -0.805160
flu 0.448280 0.418820 0.085160 0.050611 0.467520 1.016400 0.734630 0.331380 1.348200 0.904430 0.310490 0.133950 -1.774800 0.367340 0.971500 -0.899100 -0.474720 -0.095979 0.973320 -1.575000 -0.602440 1.720100 0.753030 0.100210 0.389030
still -0.221140 0.675290 0.593440 -1.023500 -0.657800 0.643570 1.646100 -0.137540 -0.206520 0.413880 -0.122240 0.925810 -5.016800 -0.110610 0.034176 0.353560 0.027989 -0.559680 -0.228600 -0.799670 0.588680 0.569420 0.293490 0.310400 -0.501460
its 0.169690 0.445680 0.008664 -0.215820 -0.062703 0.144330 1.463800 -0.573170 -0.454230 0.410400 -0.791950 0.875700 -5.299100 0.139410 0.397900 -0.217300 0.594890 0.054626 -0.251200 0.053390 -0.046619 0.214470 0.217810 0.515390 -0.443790
them 0.674030 0.688400 0.173880 0.848650 -0.480430 0.109990 0.866850 -1.041300 -0.914190 0.452670 -0.648410 0.338620 -5.830800 -0.301390 -0.468790 0.033304 0.137130 -1.632700 0.498690 -0.317120 -0.226240 0.248490 0.418210 -0.278070 -0.665600
effects 0.374090 -0.287070 -0.490670 0.893730 1.450500 0.067013 1.410700 -1.404800 0.760590 0.010985 0.075865 0.285500 -2.318400 -0.054450 0.863700 0.327070 0.646930 0.601640 1.477900 -0.222950 -0.795060 -0.355440 -0.348060 0.198480 -0.277810
going -0.688380 0.862090 0.582110 -0.904470 -0.949830 0.200650 1.731400 -0.874890 -0.210760 -0.248540 -0.661710 0.433970 -5.291000 -0.035269 0.575840 -0.084004 0.120180 -0.858480 -0.590020 -0.896220 -0.040656 0.052608 0.571960 0.026139 0.053484
think 0.326480 0.483920 0.137260 -0.346500 -0.804440 0.134920 1.819500 -0.410970 -0.551920 -0.041287 -0.436440 0.653450 -5.458600 -0.588950 0.071544 0.196180 0.387520 -0.596230 0.091468 -0.525650 0.779380 0.688520 -0.127460 0.172600 -0.605690
his -0.565030 0.250740 0.607680 1.003500 0.396510 -0.718470 0.758340 -0.107640 -0.418480 -0.202680 0.409270 1.043300 -5.804600 0.300490 -0.036584 -0.591690 0.551780 -0.034025 -0.449230 -0.260960 -0.394430 1.189800 0.607970 -0.745770 -1.450200
us 0.387270 0.679130 -0.512130 0.170870 -0.642010 -0.740630 0.753640 -0.244870 -0.237790 0.189330 -0.205550 -0.072817 -5.457500 0.675330 -0.372570 -0.265620 -0.015686 -0.641570 0.055260 -0.514450 -0.346850 -0.372390 -0.280490 -0.368920 -0.554130
now -0.256430 0.323170 0.259930 -0.657650 -0.453000 -0.162560 1.806500 -0.109360 -0.121310 0.236340 -0.483890 0.826990 -5.164000 -0.296660 0.551610 0.036446 -0.058692 -0.757940 -0.312580 -0.311500 -0.228250 -0.575860 0.368210 0.270500 0.213150
were 0.088601 0.287590 0.962790 -1.137200 -0.662380 0.385670 1.271200 -0.844060 -1.146700 0.251730 0.431740 0.551910 -5.166000 0.154370 -0.300010 0.215520 0.041704 -0.323690 0.304200 -0.841260 0.445830 0.566720 -0.476060 -0.396950 0.078108
then -0.246940 0.326620 0.520210 -0.329800 -0.707190 0.180340 1.664000 -0.453800 0.100850 0.708000 -0.342850 0.585980 -4.892300 -0.244910 0.446780 0.551830 0.559040 -1.285300 -0.380520 -0.950570 0.122160 0.192560 0.299990 0.462100 -0.574670
over 0.550930 0.343080 -0.053217 0.033585 -0.593310 0.229270 0.101530 -0.597630 -1.027100 0.672390 0.187580 1.271400 -5.164700 0.184490 0.383890 0.735540 0.383100 0.522210 -0.787660 -0.453930 -0.776590 0.226480 0.187970 -0.466450 0.392370
into -0.446190 -0.077681 0.635930 0.840830 -0.151010 0.087877 0.910860 -0.932140 0.374030 0.248900 0.012693 0.476470 -5.325800 0.184260 0.046725 0.298130 0.339810 -0.016913 0.066486 -1.001700 -0.969180 -0.245400 0.570130 -0.977340 -0.366060
other 0.536950 0.491180 0.286240 0.248380 0.254930 0.101950 1.264000 -0.939800 -0.430760 0.309350 -0.487960 0.118390 -5.400200 0.160640 -0.155810 0.246500 0.099163 -1.000300 0.599760 0.194010 0.014151 -0.115130 -0.532770 -0.653150 -0.982350
never 0.357870 0.531720 0.028910 -0.114540 -0.930900 -0.058475 1.678600 -0.260250 -0.797490 -0.299050 -0.049528 0.377630 -5.435500 -0.144860 -0.496200 0.987970 0.128340 -0.033029 0.523230 -1.034600 0.551560 0.741500 0.202270 0.671470 0.036255
taking -0.684980 1.276700 0.548010 0.124190 0.236450 0.120890 1.268000 -1.280800 -0.333420 0.131980 -0.207250 0.282240 -4.553500 -0.219800 0.760400 -0.089529 0.008667 -0.625870 -0.321890 -0.870830 -0.319340 0.275300 0.135940 -0.281290 -0.698050
many 1.047200 0.757210 0.390050 0.181970 0.026070 0.399000 1.580300 -1.058200 -1.129000 -0.052870 -0.104900 0.057191 -4.704800 0.646970 -0.328860 -0.294090 0.403690 -0.594510 0.696800 0.042907 -0.013694 -0.024407 -0.449190 -0.295970 -0.996780
those 0.625440 0.569550 0.172940 0.578270 -0.227690 0.389860 1.509500 -1.129500 -0.982540 0.216410 -0.056468 0.037350 -5.060800 0.239430 -0.547740 -0.101070 0.353330 -0.887110 0.705410 0.041453 -0.217050 0.238520 -0.198620 -0.479660 -0.910810
our -0.420470 0.565260 -0.033577 0.310190 0.189300 -0.645880 1.387600 -0.574840 -0.138960 -0.390030 -0.169110 -0.073094 -5.702100 0.812640 -0.412840 -0.438670 0.361850 -0.344710 0.146530 0.076999 -1.275600 -0.631900 -0.635160 -0.517290 -0.901670
before -0.449520 0.717590 0.663070 -0.059095 -0.463410 -0.444160 1.556700 -0.710610 -0.253760 0.378690 0.162940 0.608760 -4.754300 0.388060 0.542110 0.356790 0.137410 -0.602320 -0.443920 -1.306200 -0.619690 -0.044117 0.392870 0.169100 -0.037740
died -0.701790 0.290060 1.445200 0.289780 -0.414650 -0.982280 1.141900 -0.369390 -1.054300 0.858660 0.621410 1.447600 -3.663800 0.718920 0.682690 0.212350 0.604680 0.879270 0.081798 -1.372100 1.136600 0.950810 0.307290 -0.763190 0.669530
risk -0.058650 0.819290 -1.623000 0.714280 1.123200 0.437620 0.313100 -1.298300 0.409290 0.636510 0.369020 0.180110 -3.111900 1.197400 0.231280 -0.371930 0.076346 0.584310 0.711220 -1.584700 0.067754 0.083669 -0.143650 -0.204030 0.009931
some 0.394410 0.856030 0.399520 0.698480 0.034397 0.672450 1.328000 -0.987710 -0.279590 -0.434000 -0.509030 -0.179030 -5.605600 -0.747690 -0.009056 -0.415210 0.799810 -0.990770 0.021482 0.249510 -0.291620 0.216120 0.259520 -0.045058 -0.023421
got -0.343660 1.263800 1.141400 -0.686910 -0.054080 0.215470 1.238500 -0.103560 -0.693840 0.103450 0.237700 0.953390 -5.220400 -0.611060 0.034895 -0.272240 0.869480 -0.703990 -0.373400 -0.047821 0.497590 0.852770 1.141400 0.287310 -0.104760
against 0.658180 0.120660 -1.016800 0.050302 -0.817520 -0.467070 0.046474 -0.722720 0.146300 0.351340 0.203840 0.683780 -4.428100 1.027600 0.574840 -0.595380 -0.751680 -0.112310 -0.033551 -0.987450 -0.968520 0.975750 0.377940 -1.928700 -0.499010
long -0.439690 -0.062895 -0.075077 -0.008167 -0.138600 0.793530 1.359200 -0.407440 -0.233850 -0.049285 -0.545870 0.271010 -4.515600 0.459620 0.017928 0.259370 0.333220 -0.602920 -1.144800 -0.199470 -0.445560 0.292820 0.443100 0.596180 -0.442560
see -0.167740 0.734630 0.091207 -0.063218 -0.987130 -0.275910 1.676900 0.354150 -0.527350 -0.302750 -0.679670 0.275210 -5.142800 -0.150600 0.078035 0.143330 0.385390 -0.941700 -0.276690 -0.178000 0.180280 -0.125650 0.400250 0.447040 -0.319320
may 0.058920 -0.804190 -0.122890 -0.673380 -0.605350 -1.032900 1.928000 0.216380 0.679930 0.259980 -0.244270 -0.490640 -4.069900 1.848800 0.046267 0.071674 1.272600 -0.049288 0.487830 -1.591700 -0.365070 0.374300 -0.448520 1.102100 -0.817380
first -0.004830 0.528980 0.623850 -0.655020 -0.109030 -0.339370 1.746300 0.108840 0.212090 -0.362220 0.246870 0.697050 -4.893400 0.664830 0.320780 -0.206730 0.796260 -0.519750 -0.506310 -0.492610 -0.822110 0.176030 0.069424 -0.264310 -0.583990
very -0.500470 -0.702680 -0.567570 -0.698680 0.268320 1.034400 1.726100 -0.265750 -0.891090 -0.612790 -0.683910 0.785050 -4.502100 0.257990 -0.127250 -0.523830 0.517310 -0.002017 -0.120770 -0.818400 0.003376 0.035469 -0.765220 0.434920 -0.906820
say 0.520480 1.177000 -0.167150 0.298680 -0.831300 -0.235440 1.366700 0.515660 -0.004390 0.700470 -0.552300 0.627620 -4.716900 -0.343080 -0.285940 -0.216420 0.288000 -0.975500 -0.388380 -0.602620 0.729520 1.071600 -0.295190 0.705750 -0.315070
new -0.177000 0.432000 0.213910 -0.295150 0.473440 -0.380130 1.601800 0.562380 0.404780 -0.570940 0.341540 0.402450 -5.076800 -0.156800 -0.270470 -0.713360 0.508560 -0.259760 -0.479320 0.609130 -1.003000 -1.022500 -0.099247 -0.589480 -0.424680
said -0.211880 0.735460 0.896200 -0.076374 -0.630040 -0.648840 1.078100 0.021889 -0.398730 0.170470 0.214710 1.245700 -4.952900 -0.575780 0.215780 -0.408970 0.515000 -0.168600 -0.468600 -0.304140 1.768300 0.954670 0.156340 0.128220 -0.611180
these 0.886260 1.102500 0.554960 0.302330 0.466130 0.780220 1.366200 -1.275700 -0.775110 0.248770 -0.656570 0.075442 -5.163100 -0.170110 -0.276450 -0.053479 0.161750 -1.206600 0.349240 0.802860 0.001328 0.242440 0.261330 -0.638900 -0.357360
. 0.695860 -1.146900 -0.417970 -0.022311 -0.023801 0.823580 1.222800 1.741000 -0.909790 1.372500 0.115300 -0.639060 -3.225200 0.612690 0.335440 -0.570580 -0.508610 -0.165750 -0.981530 -0.821300 0.243330 -0.144820 -0.678770 0.706100 0.408330
blood -0.267200 0.258460 -0.182580 0.950330 0.454240 0.076912 1.045000 -0.820870 0.233870 0.591300 0.218720 0.441460 -3.545500 0.140580 -0.153760 -0.282560 0.168080 0.442020 0.568520 -0.002820 -0.495960 0.968660 0.780720 0.144770 0.880300
down -0.351930 0.399020 0.545140 0.210620 -0.536870 0.620720 0.858500 -0.140180 0.086434 0.689270 -0.132510 0.717370 -4.914100 0.184570 0.211600 0.074888 0.037614 -0.673500 -0.395430 -0.732710 -0.216440 0.190910 1.518500 -0.187190 0.136570
deaths 0.879830 0.363660 -0.112750 0.768700 0.243610 -0.202040 0.950510 -1.935900 -0.672390 0.768010 1.272200 0.388030 -1.744500 1.765800 0.471350 0.024530 0.456520 0.766720 0.738730 -1.152000 0.133540 0.454850 0.071837 -1.760400 0.372030
trial 0.351980 0.678150 -0.090847 -0.363950 0.181450 -1.135400 0.425310 -0.455290 1.126200 0.254440 0.792800 0.829690 -2.566900 0.781760 1.560900 -0.073799 0.160470 0.231450 -0.527810 -1.211300 -0.216980 0.457030 -0.449990 -0.985470 -0.731580
does 0.051358 0.012236 -0.286230 -0.042971 -0.465000 -0.775990 1.777900 -0.803110 -0.094280 -0.205750 0.253750 0.577110 -5.442200 -0.765890 0.391460 -0.000923 0.005415 -0.302460 0.492750 -0.433970 0.661340 0.710380 0.224360 0.160560 -0.769000
could -0.088437 0.415180 -0.325550 -0.457020 -0.915380 -0.350730 1.757000 -0.848480 -0.276570 -0.403740 0.660190 0.621670 -5.431100 -0.166030 -0.082700 0.231830 0.601950 -0.550610 0.460140 -1.168500 0.263900 0.325160 0.451480 0.208300 -0.328870
trust 0.260080 1.101600 -1.245100 0.717810 -0.340750 -0.078662 0.881610 -0.360540 -0.389260 0.501830 -0.831560 0.730220 -4.617400 0.259470 -0.378540 0.390970 0.018645 -0.212120 1.397400 -0.202310 0.976390 0.352160 -0.153990 0.363590 -0.718350
effective 0.023513 -0.027658 -1.384100 -0.046019 1.664700 0.165040 0.959290 -1.249900 0.441510 -0.064399 -0.072537 -0.228350 -2.510700 0.295350 0.803270 -0.055949 0.564980 0.513810 0.824610 -1.524300 -0.961980 -0.259900 -1.130700 0.432910 -0.790780
also 0.247610 -0.295950 -0.390630 -1.026700 -0.174530 -0.020093 1.107000 -0.751160 -0.378230 -0.178630 0.547040 0.768080 -4.487700 -0.150480 -0.068066 -0.142140 0.673360 0.202680 -0.262810 -1.032400 0.346500 0.207550 -0.722110 0.381480 -0.270470
death 0.021377 0.103690 0.053792 0.992780 0.053254 -0.634490 1.524400 -0.240080 -0.040619 0.370770 0.327720 0.716520 -3.627400 0.858330 0.448220 -0.096083 0.117710 0.844810 0.126270 -1.062400 0.056151 0.732690 0.143320 -0.974360 0.468340
go -0.317250 0.815070 -0.074880 -0.597480 -1.495500 0.142650 1.383100 0.172030 0.097658 -0.006371 -0.904850 -0.132080 -5.012700 -0.265890 -0.151790 0.003053 0.123320 -1.543000 -0.855170 -0.452130 -0.152370 -0.138110 0.734570 0.164820 0.295790
days -0.163110 0.710180 0.796580 -0.652770 0.051692 0.161400 2.027500 -0.654460 -0.899140 0.146620 -0.743600 0.340920 -4.286500 1.285300 0.022304 -0.304850 0.000544 -0.539650 -0.229830 -0.286500 -0.690240 -0.134380 0.306720 0.427560 0.399600
vaccination -0.013340 0.982460 -1.262200 -0.384740 0.892930 -1.055300 -0.291950 -1.695900 1.004400 0.026400 1.033200 -0.251100 -0.546500 0.488760 1.264800 -0.051072 0.024936 -0.045216 1.199800 -0.194470 -1.238500 1.629300 0.431490 -0.878670 0.253480
data 1.166600 0.355310 -0.293620 -0.522060 1.422400 -0.301160 0.045792 -0.028705 1.879200 0.281750 0.557030 -0.719440 -3.010100 0.412580 0.305200 -0.127020 -0.257830 0.906870 -0.026371 -1.094200 -1.030000 -1.237900 -0.657830 0.146630 -1.353200
already -0.266740 0.957840 0.854080 -1.286300 -0.258570 -0.116520 1.378900 -0.634310 -1.121100 0.440650 -0.127540 0.788050 -4.737700 0.096548 0.553610 0.085504 0.366950 -0.297870 -0.303910 -0.896550 0.068798 0.184180 0.378750 0.786650 -0.020463
way -0.200450 0.140980 0.000062 0.007327 -0.395090 0.502220 1.548900 -0.229460 -0.000913 -0.165710 -0.743740 0.371530 -5.070700 0.252760 0.232230 0.082119 0.359500 -0.555770 0.119090 -0.601250 0.118480 -0.001071 0.342190 0.124340 -0.251860
via 0.560280 -0.256720 -0.122800 -0.483860 0.853230 -0.908520 -0.245270 1.222100 0.480260 0.325340 0.604140 -0.135270 -3.422400 -0.561600 -0.164890 -0.341880 -0.897940 0.475540 -0.589290 -0.282440 -0.718690 -1.741000 -0.624500 -0.828840 0.550490
government 0.882420 0.510500 -1.447300 -0.414120 0.113220 -1.396500 0.323640 -1.439500 1.011800 0.648730 0.521300 -0.466790 -4.072900 0.725550 0.466280 -0.887810 -0.177160 0.598760 0.809080 -0.811670 0.655140 0.180010 -0.514550 -1.542000 -0.748760
use 1.036100 0.412340 -0.419640 0.353370 0.485370 -0.252820 0.774210 -0.637040 0.653940 0.117260 0.078148 -0.609230 -4.765700 -0.952210 -0.326670 0.314950 0.541500 -0.417300 0.524580 -0.715740 0.068149 -0.379060 0.463040 0.321360 -0.588730
health -0.502450 0.735130 -2.022300 0.035111 1.296200 -0.488590 0.944890 -1.128500 1.048900 0.309810 0.205550 -0.402830 -3.898000 0.618780 1.010000 -1.425100 0.004289 0.382520 0.773850 -0.475800 -0.196730 -0.663180 -0.995310 -0.140170 0.049816
right -0.438760 0.095692 0.003007 -0.131950 -0.087741 -0.036863 1.756600 -0.477020 -0.465280 0.466370 -0.876050 0.808570 -5.184600 -0.116730 0.769450 0.123280 0.073833 -0.880510 -0.226390 -0.173360 0.214760 0.179980 0.800190 0.306520 0.159000
really -0.089430 0.221630 0.182440 -0.834150 -0.448910 0.479930 2.145900 -0.458660 -0.715120 -0.258220 -0.406320 0.800120 -5.354700 -0.759840 0.121480 0.245630 0.209500 -0.445530 -0.013650 -0.447790 0.861210 0.598020 0.116070 0.692950 -0.396530
same 0.525630 0.302740 0.471700 -0.019623 -0.000813 0.329830 1.303400 -0.045966 -0.146480 0.664370 -0.967910 0.597990 -4.882600 0.090988 0.337740 0.415700 0.748470 -0.583530 -0.298760 0.096638 0.070940 0.641540 -0.259990 0.296050 -0.943310
years 0.058310 0.705130 0.906260 -0.443210 0.064851 -0.449000 1.441300 -0.325640 -1.059100 0.054169 0.219920 0.464400 -4.502600 1.274100 0.038245 -0.528270 0.025833 0.103570 -0.088506 -0.509770 -0.551640 0.456960 -0.380140 -0.218430 -0.203850
am -0.088993 0.514060 0.265800 -1.058800 -0.155350 0.748270 0.847340 0.649450 -0.525220 0.102160 -0.906960 0.208710 -4.309200 0.260040 0.034696 -0.181390 0.639540 0.648010 -0.516050 -1.277100 0.529870 -0.287770 -0.101600 0.551090 0.701050
without -0.297480 0.556110 -0.090369 0.627110 -0.094778 0.100760 1.567300 -0.844430 -0.518300 0.451180 -0.024614 0.312930 -4.761700 -0.397030 0.391490 0.584120 -0.386980 -0.005092 0.491550 -0.738570 -0.809000 0.177630 -0.174560 0.090621 -0.734610
good -0.544030 0.602740 -0.145430 -0.023398 -0.137710 0.601370 2.192000 0.208040 -0.515360 -0.231010 -0.803870 0.569010 -5.023400 0.265070 0.478910 -0.598540 0.561320 -1.090500 -0.525870 0.125060 -0.226240 0.245290 -0.457670 0.926190 0.022125
stop 0.116090 1.068100 -0.178130 0.221610 -0.495230 0.451240 1.368300 -0.040923 -0.239930 0.910920 -0.427480 0.384020 -4.133900 -0.937470 0.217470 0.865140 -0.839120 -0.530900 -0.919780 -1.071000 0.843350 0.196310 0.156010 -0.327300 -0.181070
much -0.238370 0.190720 -0.246460 0.101110 -0.346800 0.170510 1.853700 -0.156320 -1.497400 -0.139770 -1.015200 0.376190 -5.100100 -0.291010 0.149120 -0.125540 0.242290 -0.685090 0.312440 -0.347920 -0.262780 0.175600 -0.157130 1.148000 -0.623830
says 0.067090 0.149210 -0.071986 -0.277920 -0.378690 -1.397200 0.967920 -0.250360 0.337360 0.226880 1.105100 0.781330 -4.627500 -0.177760 0.745690 -0.833630 -0.111190 0.141800 0.046439 -0.663110 1.426100 0.470250 -0.189970 -0.719350 -0.929090
time 0.099185 0.283330 0.627990 -0.463880 -0.094643 0.395360 1.895600 0.153250 0.394690 -0.030580 -0.986440 -0.244210 -4.694400 0.344210 0.463240 0.042716 -0.050703 -0.990040 -0.574490 -0.904130 -0.578180 0.141890 0.174030 0.448340 -0.021622
safe -1.261000 0.788140 -0.411410 -0.259720 -0.180990 -0.013661 1.095400 -0.316370 -0.170450 0.648090 -0.591000 -0.144370 -3.782400 0.637920 0.312210 -0.004441 0.657350 -0.314170 0.363520 -0.582610 -0.191360 -0.476900 -0.321090 0.198100 0.075299
adverse 0.260620 -0.038763 -1.662800 0.107350 0.240470 0.114860 0.550850 -1.657500 0.649020 -0.454750 -0.132320 0.011334 -1.229600 1.248600 1.579700 0.995970 0.215820 1.156400 0.486210 0.138850 -0.680280 0.263210 0.097141 -0.977590 -1.207700
made -0.190360 0.061504 0.353000 -0.137750 -0.129030 0.051283 1.420500 -0.455540 -0.760750 -0.190040 0.693360 0.577950 -4.792000 -0.460920 -0.002046 -0.099666 0.814200 -0.419940 -0.023572 -0.267870 -0.109930 0.341160 -0.231050 0.282490 0.078486
immune -0.467760 0.236990 -1.395300 0.672300 1.344400 0.609750 0.545730 -1.249200 0.636800 0.876020 -0.560630 0.218440 -1.832700 0.560530 0.508380 0.510380 0.271990 0.725680 2.418800 -1.559000 -0.255350 0.700130 0.320660 0.392360 -0.615760
immunity -0.723580 0.457820 -1.663700 0.906790 0.457240 -0.415310 0.220970 -1.361500 0.733840 -0.159550 0.732080 0.601020 -1.268900 0.974720 0.421960 -0.166770 -0.210600 0.049463 1.711500 -1.278300 -1.079900 0.598590 0.037953 -0.126340 -1.007100
shot -0.323660 0.442410 0.869800 0.107940 0.378350 -0.215490 1.020100 0.092738 0.134720 -0.004551 0.956640 0.931040 -3.667200 0.461990 0.437260 -0.062619 0.786390 -0.364840 -0.361570 -0.251750 -0.003468 0.589530 1.349300 -0.773640 -0.000969
give 0.120830 1.116100 -0.665250 0.631650 -0.502870 -0.260170 1.516800 -0.142680 -0.427690 -0.321270 -0.178670 0.373680 -4.986900 -0.231960 -0.472140 -0.175220 0.273370 -1.135000 0.135800 -0.655610 -0.045803 0.353770 0.388430 0.546910 -0.646950
tested -0.069827 0.596820 -0.607960 -0.224720 0.323500 0.076831 -0.002660 -1.579000 -0.276590 0.027564 0.575560 0.604350 -2.498200 0.229590 0.173640 0.247170 0.711530 0.491240 1.771400 -1.291600 -0.038576 0.244000 -0.282490 0.378140 -0.002160
test 1.176800 0.823290 -0.193660 -0.253280 0.993670 -0.175100 0.956190 -0.140490 0.903070 0.779420 0.052748 0.015829 -3.063900 0.798830 0.971660 0.153600 0.548580 -0.062755 -1.139400 -0.539280 -0.493890 -0.175490 -0.415420 0.628150 -0.335480
until -0.573440 0.764040 0.279330 -0.432590 -0.638270 -0.507340 1.677400 -0.935570 -0.685820 0.176170 -0.308410 0.567960 -4.506800 0.925720 0.293400 0.438420 0.070434 -0.229740 -0.267810 -1.019000 -0.799900 -0.209180 0.703330 0.183710 -0.009254
work -0.431030 0.902150 -0.181120 -0.536840 0.394680 0.144960 1.335800 -0.934690 0.057636 -0.016199 -0.896130 0.122300 -5.310700 0.085847 0.736450 -0.010881 0.533150 -0.625960 -0.199670 -0.821470 -0.347580 -0.349090 0.204390 0.814190 0.165620
believe 0.697720 0.779850 0.174520 0.009494 -1.018700 -0.410320 1.524000 0.415030 -1.122200 -0.792820 -0.485390 -0.379670 -4.422600 0.221060 -0.303560 0.624350 -0.407500 0.028359 0.311300 -0.734920 -0.092407 -0.026383 -0.188160 -0.109010 0.191150
every -0.108930 0.544430 0.205020 0.243130 0.247610 -0.337020 1.902300 -0.559230 -0.604000 0.020160 -0.339300 0.566720 -5.070400 0.731320 -0.139720 0.359760 0.577350 -0.509620 0.223690 -0.386230 -0.418100 0.052808 0.224070 -0.180200 -0.387460
did 0.282460 0.580280 0.594590 -0.426640 -0.956830 -0.876590 1.647900 -0.345060 -0.442580 -0.220980 0.005363 0.944880 -5.402600 -0.607880 0.399050 -0.181870 0.615130 -0.450440 -0.206600 -0.550390 0.682760 0.831980 0.433270 0.335700 -0.439940
trials 0.152140 0.506750 -0.640190 0.146150 -0.441480 -0.535380 1.139300 -1.502300 0.468130 -0.355690 -0.116690 0.209000 -2.109100 1.459600 0.546440 0.314820 -0.537870 0.340880 1.174500 -0.075813 -1.354000 0.696000 -0.375260 -0.195520 0.323910
experimental -0.371750 0.347730 -0.098633 -0.035184 1.269100 0.516220 0.308940 -0.842370 1.230300 -0.708630 -0.234330 -0.434560 -1.405500 0.003399 0.616660 0.273870 0.353740 1.460700 1.126400 0.207950 -0.793150 -0.060050 -0.775350 -0.839590 0.610930
vax -0.424500 0.749550 -0.479630 -0.037068 -0.514090 -0.269500 -1.620300 -0.960520 0.718220 -0.334140 -0.054871 -0.219060 -0.394360 0.118940 0.238700 0.230310 0.415910 0.364120 1.005600 0.198570 -0.403500 0.301830 0.492130 0.600190 -0.185210
under -0.435690 -0.175890 -0.026891 -0.252600 0.250040 0.085926 -0.410510 -0.645860 -0.083177 0.883160 0.342380 0.458090 -4.441600 0.633590 -0.556680 0.208540 0.562400 0.210890 -0.083167 -1.058900 -0.820430 0.385820 0.460640 -0.818380 0.023786
yet 0.158490 0.130740 0.116300 -0.709570 0.113060 -0.196520 1.380900 -0.879740 -0.755380 0.044454 -0.430100 0.816420 -4.568300 0.566910 0.449710 0.256810 0.576910 -0.404930 -0.001924 -0.872830 0.023719 -0.127890 -0.104620 0.507870 -0.166010
rushed -1.082500 0.745210 0.768490 -0.211340 -0.093745 0.529110 0.019969 -1.700500 0.028543 -0.273000 -0.180090 0.895250 -1.831700 0.771710 0.620760 0.385780 -0.034448 -0.078408 0.301040 -1.941000 0.706470 0.963460 0.388730 -0.460970 -0.529920
, 0.847050 -1.034900 -0.050419 0.271640 -0.586590 0.995140 0.252670 1.696300 0.103130 0.800730 0.746550 -1.266700 -4.036000 -0.225570 0.163220 -0.670150 -0.648120 0.010373 -0.718890 -0.749970 0.248620 0.103190 -1.173200 0.581960 0.338460
children -0.540120 0.295230 -0.128190 0.423270 0.621310 -0.713200 1.194600 -1.159600 -0.322480 0.435760 0.072544 -0.161530 -4.056400 0.715350 -0.590130 -0.609980 0.449380 0.017733 1.078300 -0.933630 0.217280 -0.016300 -1.231900 -1.518900 0.445270
having -0.906990 1.126400 0.445670 0.053164 0.230810 0.552270 1.810800 -1.053000 -0.913490 -0.022407 -0.143660 0.168400 -4.795200 -0.188610 0.451070 0.176060 0.338790 -0.349390 0.003815 -0.881750 -0.062518 0.511330 -0.171470 -0.096449 -0.707060
too -0.466980 0.402990 0.120210 -0.002940 -0.206420 0.459200 1.678400 0.080839 -0.765190 0.084872 -1.106800 0.534560 -4.864200 -0.442370 0.110530 -0.475320 0.430530 -1.250200 -0.304310 -0.409600 0.303080 0.534770 -0.008520 1.300000 -0.218850
term 0.617710 0.373900 -0.773820 -0.272480 1.025400 -0.319290 0.939860 -1.039600 0.163340 0.042330 -0.332930 0.018901 -3.189800 0.776970 1.002600 0.001474 0.838150 0.402910 -0.051713 -0.518470 -0.181060 0.542380 -0.536150 -0.093255 -0.891790
die 1.600200 -0.224590 -0.275650 -0.911920 -0.268500 1.183200 -0.805830 0.236290 0.109240 0.440440 -0.445670 1.764100 -3.662600 -1.286100 -0.206030 1.107900 1.376700 0.651910 -1.948800 -0.788940 0.116380 0.699240 -0.997960 0.387060 0.837250
year -0.049064 0.687250 0.671870 -1.037300 0.096446 -0.374320 1.835400 0.087708 -0.720080 -0.159580 -0.132320 0.514150 -4.556500 1.432800 0.303520 -0.737380 0.456810 -0.949210 -0.409110 -0.067633 -0.796040 0.202000 -0.358740 0.133020 -0.268090
severe -0.642800 0.362060 -1.345300 0.604920 0.044640 0.387720 1.179700 -1.113300 0.218140 0.440500 -0.168520 0.531490 -1.561500 1.761100 1.951400 -0.815260 0.529280 1.233900 0.291670 -1.313500 -0.186270 -0.025499 1.342600 -0.670550 -0.362100
safety -0.537400 0.788890 -1.177300 -0.139840 0.738070 -0.376660 0.271280 -0.649850 1.339500 0.318960 0.683110 0.256160 -3.413100 0.415680 0.943340 -0.197830 0.189020 -0.189870 0.870110 -0.152570 -0.599340 -0.228040 0.318260 -0.728400 -1.046100
money 0.364120 1.736400 -0.696610 0.280560 0.732400 0.252990 0.309510 -0.734030 -0.279630 0.404590 -0.042116 0.104810 -4.959200 -0.333040 -0.162830 -0.318120 0.442740 -0.735400 0.238740 0.032485 0.125870 -0.082511 0.399560 0.321390 0.122040
rolling -0.328090 0.502780 1.131700 0.424690 0.076118 0.603350 0.583980 -0.324090 0.141240 -0.033964 0.484680 0.336080 -2.841300 -0.424800 0.068844 0.440120 -0.118810 -0.043511 0.244920 -0.007156 -0.462360 -0.027249 1.033500 -0.469160 0.654650
world 0.103010 0.095666 -0.147890 -0.223830 -0.147750 -0.115990 1.851300 0.248860 -0.418770 -0.203840 -0.085090 0.332460 -4.694600 0.840960 -0.466660 -0.031128 -0.195390 -0.037349 0.589490 0.139410 -0.576670 -0.444260 -0.430850 -0.528750 0.258550
medical -0.565550 0.921610 -0.939360 -0.348320 1.063900 -0.464780 0.178090 -1.085200 1.642500 0.063687 0.566960 -0.505250 -3.229500 0.719560 1.666100 -1.280000 0.572280 0.558770 0.107150 -0.485850 -0.119460 -0.172010 -0.754940 -0.889220 -0.181930
most 0.735310 -0.106230 -0.033714 -0.686860 0.603570 0.928160 1.689500 -0.832310 -0.988160 -0.564610 -0.142310 0.577010 -4.842900 0.988450 -0.478870 -0.212230 0.613790 0.196850 0.397540 -0.323730 0.191280 0.398100 -1.076600 -0.377090 -0.939110
dose 0.158350 0.343440 -0.458150 1.137900 0.821550 0.498320 0.507940 -1.029900 0.834160 -0.634250 -0.946320 -0.931070 -2.115100 0.191160 -0.280400 0.233180 0.462530 0.270620 -0.159020 0.033272 0.112760 0.302930 0.117670 0.755250 -0.174110
human 0.236160 -0.211540 -1.012300 0.575910 0.992420 -0.198290 1.523500 -0.438650 0.317820 0.477750 0.263630 0.264030 -3.766300 0.531930 -0.288410 0.283030 0.300700 0.568510 1.093800 -0.313240 -0.163520 0.482720 -0.906410 -0.691150 -0.462830
sure 0.072266 0.199660 -0.022508 -0.583400 -0.590760 -0.071472 1.496300 -0.181590 -0.501890 0.252910 -0.438470 0.179360 -4.518400 0.171380 0.275290 0.200680 0.952430 -0.740360 -0.634360 -0.304600 0.523750 0.104770 -0.131970 0.819890 -0.748330
? 1.104000 -0.346290 0.088792 -0.255400 -0.023462 0.514870 0.749100 1.785800 0.169280 0.936790 0.010994 -0.989830 -3.706100 -0.825980 0.904470 -0.413010 -0.617000 -0.624240 -1.169800 -0.022587 0.267910 -0.076523 -1.114200 1.336000 0.201450
own 0.126110 0.264580 0.058014 0.880670 0.585130 -0.131610 0.977760 -0.691810 0.247900 -0.263360 -0.720090 -0.381940 -5.168800 -0.325660 -0.495420 -0.204600 0.087902 -0.237000 0.160390 -0.264970 -0.451700 0.344820 -0.070953 -0.088521 -0.810400
receiving -0.604380 1.328000 0.024161 0.470190 0.752400 -0.164210 0.471130 -1.561600 -0.608950 -0.919280 0.197930 0.481380 -2.507800 0.602820 -0.039434 -0.409790 -0.213750 -0.005235 -0.201000 -1.143000 -0.566260 -0.118080 -0.205260 -0.294150 -1.721100
cause 0.148620 0.468920 -0.372860 0.630920 -0.159730 0.403680 1.149100 -0.826600 -0.788010 0.482940 -0.590660 0.303580 -4.765300 -0.081088 0.465320 1.203000 0.130660 -0.739200 -0.689380 0.012701 1.128400 0.232970 0.804900 -0.059886 0.025547
two 0.582960 0.445170 1.040600 -0.047745 0.015119 0.383690 1.371100 -0.880550 -0.761840 0.187570 0.443310 -0.027604 -4.738900 0.853780 -0.153180 -0.504790 0.525730 -0.518880 0.135640 0.102010 -0.621850 0.178990 0.147360 -0.683950 -0.583900
where -0.142640 0.596060 0.393020 -0.134660 -0.768090 -0.250780 1.540800 -0.439770 -0.327630 0.285430 -0.430810 0.230690 -5.153400 0.015834 0.177240 -0.029217 0.421450 -0.355750 0.303910 0.219500 0.624050 -0.083863 0.116150 -0.066493 -0.066530
care -0.297480 1.042500 -1.260300 0.232770 0.273830 0.066996 1.106200 0.145310 0.345420 0.721540 -0.713520 -0.087143 -4.402100 -0.233040 0.040494 0.337260 0.346140 -0.792750 0.353570 -0.782280 0.749190 0.374120 -0.596670 0.591140 -0.547290
given -0.034554 0.746420 -0.590520 0.097648 -0.067329 -0.499170 0.456940 -1.061400 -0.801040 -0.374080 0.506180 0.737070 -4.212200 1.023700 0.083753 -0.138740 0.547490 0.188840 0.454430 -0.956100 -0.233570 0.363580 -0.439010 0.281570 -0.924400
coronavirus 0.232210 0.192740 -0.201910 0.551830 0.220280 -1.733000 -0.517900 -0.485830 0.996210 -0.619920 1.361800 0.512140 -0.276730 -0.263780 0.922700 1.039600 0.442280 0.835790 1.348100 0.556330 -0.645680 0.256640 -0.190450 -1.982300 -0.043051
healthy -1.201800 0.298650 -1.314100 0.475310 0.841620 1.322000 1.404500 -1.488200 -0.263730 -0.372190 0.058341 -0.389260 -3.468000 -0.129460 0.140300 -1.066200 0.488460 -0.871170 0.811840 -0.679120 -0.663680 0.308360 -1.252000 0.905320 0.292400
efficacy 0.438260 0.124890 -1.469600 0.380120 0.560500 -0.492700 -0.411650 -2.225900 1.057600 -0.719420 0.631720 0.524350 -0.873230 0.347320 1.245500 0.031784 0.182440 0.828710 1.184100 -0.340670 -0.785580 0.575360 -0.699040 -0.272860 -0.711990
anyone -0.065135 0.856410 -0.264080 -0.053612 -0.735240 -0.393880 1.424200 -0.735230 -0.552200 -0.052161 -0.301000 0.063124 -5.006900 -0.645930 0.361390 0.611760 0.315250 -0.912720 0.479860 -0.660930 0.074225 -0.578880 -0.186910 -0.044975 -0.846740
cases 0.953900 -0.238310 -0.400500 -0.029705 0.919490 -0.551690 0.119420 -1.220900 -0.242740 0.560350 1.307000 -0.493860 -2.596200 0.107660 0.359190 0.274400 0.472720 -0.143850 0.987490 -0.326780 -0.372010 -0.226430 0.508510 -0.466920 -0.476630
| 0.609290 -0.008666 -0.825610 -0.436830 0.482530 -0.335120 0.728370 2.211500 1.002800 1.077600 1.067600 0.579300 -2.613000 -0.339150 -0.901590 -1.527500 -1.156100 0.254330 -0.094962 0.269900 -0.987390 -0.960920 -0.358790 -0.494450 0.740070
thinking -0.297460 0.787930 0.450290 0.371000 -0.178630 1.049300 1.705300 -0.919240 -0.307530 0.566570 -0.746420 0.808330 -4.246100 -0.451010 0.546670 0.607480 -0.218910 -0.249260 -0.080301 -0.868970 0.215200 0.139230 -0.537610 0.263890 -0.406200
keep -0.628060 1.592100 -0.335960 0.189740 -0.201330 0.568180 1.345600 0.074532 -0.350960 0.487860 -0.516180 0.523730 -4.572100 -0.280310 -0.526580 0.271620 -0.924070 -0.916020 -0.124430 -0.850510 -0.125090 0.324290 0.036949 0.454670 -0.373730
months -0.385870 0.952650 0.769180 -0.672200 0.441170 -0.456160 1.159400 -0.776920 -1.359000 0.657430 -0.029589 0.496630 -3.764100 1.273700 0.158560 -0.376660 0.416310 -0.288770 -0.395470 -0.988780 -0.683310 0.126960 0.112590 0.427790 -0.410950
used 0.477510 0.136620 0.470260 -0.349150 -0.058460 -0.144890 0.979140 -1.031100 0.141250 0.223470 0.519430 0.605250 -4.754500 -0.825440 -0.504730 0.304020 0.772720 0.162900 0.832870 -0.509750 0.484470 0.048613 0.270260 -0.197930 -0.327800
serious 0.391270 0.678180 -0.359240 -0.192310 0.602900 1.113500 1.404800 -0.003302 0.166380 0.523700 -0.871160 0.909840 -3.494500 -0.205730 0.982100 0.638320 0.572080 -0.629400 -0.424660 -0.764550 0.683490 0.534400 -0.160080 0.078071 -0.824670
testing 0.377970 1.128800 -0.520900 -0.281640 0.842880 -0.189250 0.778580 -1.658500 1.157200 0.365670 0.256810 0.295080 -2.692200 -0.080627 1.130600 0.215620 -0.038753 0.327350 0.250370 -0.378300 -0.687140 -0.475620 -0.349410 0.300120 -0.441360
tears -0.565250 0.068957 0.428620 1.552000 -0.468030 0.096009 1.908200 -0.589710 -0.875850 0.405410 -0.068809 1.218100 -3.316400 0.741320 -0.404210 0.565430 -0.406280 0.467950 0.358350 -0.709620 -0.279200 0.863370 0.996860 0.474480 0.021637
company -0.595340 0.629140 -0.469820 -0.752000 0.906660 -0.325710 0.055783 -0.875590 1.139900 -0.018093 0.769860 -0.158070 -4.362500 0.002539 0.566700 -0.405750 0.725470 -0.104330 0.534570 0.073103 0.193990 -1.275200 -0.897980 -0.360930 -0.646840
reaction 0.238750 -0.351990 0.379900 0.248100 0.575320 -0.675850 1.771100 -0.312200 -0.189120 -0.729450 0.188750 0.835420 -2.649400 0.494260 0.798400 0.882740 0.089556 -0.197630 -0.409980 -0.421340 0.189590 0.674590 0.287850 -0.494660 -1.594800
saying 0.395980 0.724010 0.416630 0.044335 -0.360450 -0.450220 1.299700 -0.572670 -0.952030 0.347400 -0.520730 0.865930 -4.518300 -0.686150 0.517810 0.096084 0.131880 -0.477930 -0.328510 -0.725730 1.198000 0.603710 0.033558 -0.345980 -0.798720
actually 0.191430 -0.111660 0.480520 -0.896780 -0.503210 0.259900 2.088200 -0.794260 -0.692090 -0.024274 0.180130 0.487180 -4.942600 -0.602360 0.519380 0.789000 0.407850 -0.089267 0.016793 -0.937710 0.543000 0.692650 -0.504570 0.524330 -0.600180
joy -1.081100 -0.032919 -0.150430 1.347100 -0.418690 -0.123240 1.055300 0.026657 -0.099019 -0.604210 -0.405890 0.298760 -3.143500 0.660330 -0.084699 0.114030 -0.001813 0.627860 0.588980 -0.108290 -0.436210 -0.077728 -0.587760 0.854200 0.227410
through -0.537270 0.312650 0.518320 0.781480 -0.198910 0.093628 0.887740 -0.983370 -0.107670 0.330010 -0.391790 0.667350 -5.130600 0.704330 0.324410 0.481190 -0.017357 0.156210 0.146950 -0.860110 -1.118600 -0.636550 0.738430 -0.491520 -0.510210
reactions 0.650720 -0.270390 0.083782 0.264060 0.767710 -0.340910 1.628400 -1.554400 -0.201220 -0.556560 -0.179270 0.793100 -1.442900 0.517850 0.417670 1.106300 -0.181940 -0.532750 0.347520 -0.380750 0.066766 0.302650 -0.107410 -0.684860 -0.949280
back -0.743550 0.715000 -0.159300 -0.281360 -0.736000 -0.177020 1.043200 0.628630 -1.032400 0.442640 -0.113560 0.300860 -4.791700 -0.229620 -0.211540 -0.149650 -0.315820 -1.390800 -0.736000 -0.460940 -0.131240 -0.960470 1.260400 0.247900 -0.445850
something 0.278260 0.107520 0.143190 0.536870 -0.249530 0.628380 1.748600 -0.518310 -0.543930 0.044798 -0.664090 1.093600 -4.972100 -0.365990 0.135860 0.270680 0.370820 -0.603800 0.072578 -0.902110 0.126950 -0.198310 -0.194980 0.720220 -0.606100
rate 0.167730 0.293450 -1.549400 -0.054678 1.461600 -0.653080 0.519610 -0.217980 -0.516210 0.029939 0.804350 0.313540 -2.606800 0.477210 0.157090 -0.446130 -0.088821 -0.293120 -0.514050 -0.392160 0.075975 -0.778340 1.060700 0.506540 -1.529900
due 0.462750 0.601720 0.270550 -0.389720 -0.179780 -0.817430 0.283250 -0.610420 -0.094703 1.716200 0.087303 -0.955080 -3.130400 1.758600 0.112170 0.919330 0.262980 0.564640 -1.176700 -1.185900 -0.770740 0.186080 0.585970 -0.410350 -0.527920
her -0.192140 0.073321 0.986170 1.325400 0.748770 0.176310 0.222230 -0.526490 -1.321900 0.906660 -0.396610 0.433000 -4.948400 0.313040 -1.674300 -0.742650 0.741680 -0.530400 -1.112600 -0.344870 0.901790 1.011200 -0.084977 -0.681000 -0.483350
developed 0.301800 -0.048964 -0.244560 -0.771080 0.604010 0.210710 0.434890 -1.614800 0.139390 0.101390 0.394450 1.028000 -2.630300 0.214740 0.010168 0.403700 0.932070 1.160300 1.825600 -0.867330 -0.045192 0.129820 -0.893310 -0.491400 -0.399450
she -0.769040 0.462110 0.801550 -0.148650 -0.090278 -0.434240 1.441200 -0.096204 -0.747790 0.245880 -0.198590 0.895310 -5.532500 -0.752500 -0.575210 0.409180 0.563850 -0.319630 -0.266480 -0.215440 1.723900 0.982740 0.617530 0.584630 -0.536600
less 0.479170 0.550490 -0.703910 -0.103210 0.472550 1.281500 1.091300 -0.972560 -0.847520 0.144260 -0.291210 0.263450 -4.002700 0.461380 -0.074804 -0.161780 0.156810 -0.375530 0.550350 -1.203400 -0.458130 0.108170 -0.284320 0.342020 -0.681900
put 0.146460 1.008000 0.029364 0.627250 -0.427760 0.202200 0.783380 0.093455 0.377140 0.690440 0.084459 0.511790 -4.840700 -0.756600 -0.112540 0.292130 0.664610 -0.924260 -0.338700 -0.357350 -0.424310 0.994540 0.366480 0.486000 -0.507500
everyone -0.663440 1.167900 0.031686 -0.049315 -0.434520 -0.524710 2.141800 -0.326360 -1.736600 0.266860 -0.479250 0.273990 -4.767900 0.045498 -0.209180 0.147000 -0.321770 -1.058800 0.134120 -0.330910 0.421650 -0.931100 0.006554 -0.100010 -0.867120
big -0.184690 0.399780 -0.042707 -0.055650 0.449530 0.460440 1.334200 0.270870 -0.204950 -0.526760 -0.190030 -0.136440 -4.596900 -0.374110 -0.086688 -0.644490 0.289820 -0.952200 -0.618240 0.335030 -0.451590 0.499040 0.545920 -0.314480 -0.123020
tell 0.047845 1.182000 -0.025191 0.443280 -0.661920 -0.612790 1.345500 0.033524 -0.383370 0.022802 -1.006100 0.599570 -5.106200 -0.755890 -0.189100 0.158940 0.565030 -0.901490 -0.165600 -0.429980 1.411800 0.356150 0.245320 0.397220 -0.400750
using 0.797890 0.345100 0.025410 0.126750 0.826590 -0.367790 0.585580 -1.278500 0.396560 0.489200 0.167170 0.389580 -4.141700 -1.374500 -0.007408 -0.145860 0.374150 0.139360 0.452560 -0.751170 -0.758600 -0.977370 -0.240830 -0.431530 -0.822140
well -0.075826 0.221990 -0.111900 -0.619150 -0.695130 0.165160 1.634000 -0.257470 -0.811800 0.101100 -0.493980 0.831240 -4.867600 0.006392 0.642610 -0.434330 0.833010 -0.603360 -0.308820 -0.458900 0.193000 0.531780 -0.307660 1.068500 -0.465640
clots -0.409670 0.049857 -0.263050 1.760300 -0.513890 -1.303700 -0.886060 -2.739200 0.264660 0.789910 0.369040 0.641010 -0.982480 0.229410 -0.344160 0.698890 -0.093915 1.155900 1.549500 -0.373860 0.360740 1.386100 0.590980 -0.595920 0.632150
case 0.397740 -0.474410 -0.118120 -0.155240 0.772880 -0.854370 0.279100 -0.070933 0.854370 0.347460 0.971300 -0.010804 -4.007500 -0.360800 0.297770 0.116250 0.644740 0.398430 0.035030 -0.318100 -0.230320 -0.066606 0.926240 -0.133420 -0.705330
since 0.051860 0.863670 1.140200 -0.715560 -0.140730 -0.260560 1.024200 -0.436550 -0.859430 0.109580 -0.360720 0.682160 -4.490600 0.681890 0.604220 -0.149200 0.365630 -0.207040 -0.085323 -0.608140 -0.329290 0.352630 0.191970 -0.055658 -0.166460
enough 0.065719 0.336640 -0.666080 0.346360 0.085934 0.516930 1.572600 -0.980170 -0.484100 -0.072345 -0.481080 0.415050 -4.642500 0.190410 -0.022051 0.175330 0.544980 -0.795830 0.471230 -0.773820 -0.104130 0.623660 -0.051321 0.390870 -0.479970
old -0.275490 0.359670 1.263900 -0.011012 0.258690 0.284710 1.375500 0.074752 -0.498030 0.057260 -0.428520 0.396940 -4.687200 -0.119470 0.036601 -0.149910 0.997610 -0.337910 -0.068476 0.214000 -0.157860 0.505740 -0.013779 -1.032400 -0.438850
woman -0.925270 -0.338790 -0.321380 0.146760 0.522700 -0.153490 1.216600 -0.223890 -0.086560 0.285100 0.184740 0.427970 -4.397800 0.261680 -0.430440 -0.001192 0.668940 -0.081109 0.563460 -0.374770 1.178600 0.771340 -0.527640 -1.259200 -0.451120
might -0.266520 0.596490 -0.395990 -0.541270 -0.614560 0.417800 1.539100 -0.989290 0.129610 -0.671490 -0.004467 0.729730 -4.865300 0.151910 0.023510 0.488830 0.547230 -0.604890 0.199450 -1.302100 0.628460 0.235180 0.557780 0.363140 -0.322010
must 0.021738 0.525000 -1.204400 -0.713980 -0.457200 -0.488790 1.476700 -0.468480 -0.305890 -0.118350 0.283410 0.774970 -4.542000 0.008956 -0.739040 -0.028008 -0.027277 -0.444840 0.274430 -1.055500 0.460500 -0.085165 0.032292 0.287290 -0.280710
pointing -0.324960 0.149760 0.663070 0.683100 -0.149730 -0.324640 0.426330 -1.898000 -0.230290 0.881800 -0.448230 1.058500 -2.283900 -0.497290 -0.101810 0.269950 -0.727920 0.287990 0.269350 -0.811390 0.270280 0.295890 0.480310 -0.801690 -2.005600
doses 0.624550 -0.249440 -0.358460 0.929000 0.260860 1.227700 -0.632980 -2.398000 0.225760 -0.895800 -0.069864 -1.137300 -1.098700 0.639950 -0.144680 -0.793580 0.300870 -0.147050 1.054900 0.364470 -0.454600 0.200430 0.286520 0.570070 -0.463150
life -0.110480 0.132740 -0.348930 0.480770 0.171840 0.213670 1.997900 -0.065145 -0.454370 -0.008929 -0.916360 0.496810 -5.097100 0.382440 -0.085692 0.540550 -0.128580 -0.079061 0.429200 -0.123210 -0.136970 -0.192380 -0.251630 0.452150 0.051584
body -0.932490 -0.269390 -0.401180 0.692060 1.013600 0.725920 1.128400 -0.216440 0.417560 0.527420 0.368570 0.573880 -4.065400 -0.359110 -0.397590 0.130060 0.345890 -0.257260 0.340680 -0.265250 -0.340940 0.759520 0.560830 0.477390 -0.256960
end 0.153060 0.504790 -0.584540 0.104270 -0.501650 0.154980 1.443200 -0.326920 0.004511 0.145280 -0.224030 0.624110 -4.296200 0.950030 0.370690 0.465480 -0.385070 -0.135890 -1.024300 -0.725990 -0.499730 0.132900 0.452720 0.029537 0.088057
told -0.578920 1.134600 1.012900 -0.062693 -0.567130 -0.847190 0.759300 -0.223460 -0.519230 -0.011842 -0.135630 0.883400 -4.979300 -0.595860 0.325960 -0.182550 0.916330 -0.323910 -0.128170 -0.526870 1.845600 0.796920 0.095418 0.054236 -0.701880
allergic 0.040905 -0.235030 0.299850 0.538650 -0.199410 0.987340 1.550300 -1.584500 -0.065058 1.151900 -0.161830 -0.252320 -1.675100 -0.654150 0.137590 0.288910 1.360100 0.207260 1.134200 -0.493910 0.491110 1.795900 -0.120010 0.174830 -0.215010
index -0.395240 -0.037391 -1.081300 -0.754430 0.946230 -0.536920 0.580890 -0.671660 0.886630 -0.239190 1.093800 1.291600 -1.573500 0.938240 0.067288 -0.741870 -0.286340 0.694270 0.102910 0.177390 -0.829520 -0.821870 0.938840 0.447790 -0.913070
let 0.156780 0.867350 -0.579780 0.186570 -1.013200 -0.123010 1.679000 -0.093810 -0.200080 -0.314730 -0.686700 0.530740 -4.965700 -0.206390 -0.345740 0.195140 0.087286 -0.793070 -0.120400 -0.575120 0.022510 0.305940 0.637050 0.272020 0.227190
jab 0.340610 -0.958850 -0.252290 -0.052909 -1.434400 -1.072300 -0.679820 -0.288980 0.696650 0.482740 -0.371500 0.082559 -1.684900 1.150100 -0.761140 -0.338660 0.974880 0.083858 -0.901350 0.555110 -0.449140 1.674000 1.100500 0.302590 -1.498400
disease -0.621990 0.386830 -1.701800 1.157600 1.335000 -0.400520 1.180000 -1.304600 0.253060 1.019300 0.557260 0.657510 -2.274700 0.177250 1.161800 -0.148490 0.209980 1.358000 1.651300 -1.102100 0.232800 0.924680 -0.139780 -0.313130 0.803360
person -0.079901 -0.091993 -0.462330 0.298560 0.784720 0.071502 1.559800 -0.368130 -0.897100 0.119840 -0.583580 0.564790 -4.819200 0.417850 -0.521160 1.082300 0.931620 -0.156630 0.286850 -0.848950 1.319400 0.360930 -0.388280 -0.178770 -0.880960
country -0.291590 -0.036755 -0.143790 -0.625330 -0.280540 -0.083234 1.059700 -0.562640 0.120390 -0.295310 -0.571920 -0.495190 -4.512700 0.554900 -0.071129 -0.131110 -0.262540 -0.160390 0.707690 0.240180 -0.272810 0.308700 -0.479990 -1.414900 0.682540
last 0.031500 0.456540 0.939840 -0.735650 -0.361020 0.096748 1.617200 0.073376 -0.454450 0.081122 -0.216290 0.824750 -4.607800 0.974450 0.743890 0.145170 0.773600 -0.618400 -1.119200 -0.284180 -0.836550 0.072766 0.185540 0.101270 -0.107610
pushing -1.053800 1.005200 -0.043011 0.515410 -0.015247 0.188460 0.235610 -1.479800 -0.025818 0.372140 -0.480460 0.548250 -3.301300 -0.165910 0.340070 0.343150 -0.770600 -0.144280 0.482780 -1.247900 -0.132700 0.109980 0.668710 -0.616630 -1.183500
backhand -1.270100 0.132550 -0.166750 0.159880 -0.846270 0.633050 -0.568250 -0.907200 0.670500 -0.822770 0.484770 0.628630 -0.867650 -0.034817 -0.271430 0.654730 0.949670 -1.115100 0.052643 -0.017902 -0.848080 1.385500 1.127900 -0.411510 -1.268500
another -0.232070 0.942370 -0.005645 0.205260 0.091339 -0.019816 1.625600 -0.147000 -0.325030 -0.572190 -0.302310 0.651930 -4.787100 0.361250 0.205600 -0.461810 0.749620 -0.135130 -0.343870 -0.677830 -0.594810 0.199300 0.547260 -0.523040 -0.469740
real 0.460640 0.628040 -0.120600 -0.393930 0.575630 1.025000 0.548610 1.258700 -0.633540 -0.509900 -0.299720 -0.266600 -4.524100 0.148700 0.250300 0.078413 -0.575740 -0.507670 0.300020 -0.185590 0.084350 0.725260 0.126740 -0.564730 0.144840
system 0.360400 0.274710 -0.855230 -0.458920 1.451700 -0.184000 0.240810 -0.785840 1.597700 0.474820 0.226280 0.403420 -3.822300 0.073643 0.754470 0.091007 0.073718 0.693770 0.991240 -0.316600 -0.652620 -0.802740 0.267430 0.140650 -0.356070
public 0.000137 -0.017148 -1.024100 -0.163250 0.672900 -0.389800 0.562050 -0.933630 0.931850 0.796470 -0.313230 -0.366780 -3.904600 0.418960 0.706370 0.594280 0.096385 -0.292860 -0.703960 -0.578710 0.204210 -0.697620 -0.535240 -1.400400 -0.799860
far -0.408020 0.380220 -0.044210 -0.475830 -0.250730 0.053932 1.037300 -0.226110 -0.604830 0.169020 -0.401320 -0.201920 -3.941900 1.140200 -0.096871 0.691900 -0.109270 -0.157390 -0.720720 -1.307600 -0.501500 0.197370 -0.020877 0.222900 -0.261490
off -0.195160 0.377910 0.498620 0.137730 -0.095354 0.797920 0.755250 0.011834 -0.238670 0.672090 -0.062178 0.296110 -4.557200 -0.049071 0.349070 -0.445590 0.298620 -1.201100 -1.156300 -0.427040 -0.412290 -0.232970 1.227100 0.292200 -0.102120
study 0.751070 0.550480 -0.049889 -0.601050 0.353090 0.679000 1.510000 -0.728200 1.813800 0.819630 -1.163200 -0.016535 -3.336500 0.366100 1.290800 0.082947 0.815130 -0.443930 -0.512690 -1.327700 -0.094216 -0.531720 -1.317300 0.675000 -0.479420
makes -0.295610 -0.388700 -0.123850 0.097565 0.157420 0.153660 2.092700 -0.845050 -0.655120 -0.519500 0.186790 0.588650 -4.592100 -0.249860 0.178180 0.231050 -0.121690 -0.408520 0.407930 -0.681020 0.231730 0.566510 0.129260 0.172100 -0.277030
better -0.145420 0.716330 -0.106470 -0.304890 -0.344940 0.626090 1.556700 -0.205450 -0.346870 -0.425150 -0.277670 0.816880 -5.184200 -0.285630 0.337630 0.067217 0.146560 -1.189000 0.301380 -0.574980 -0.010327 0.513130 -0.084000 0.557680 -0.474160
man 0.370130 -0.396480 -0.021712 -0.630100 -0.318900 0.343290 0.109680 0.487900 -0.486630 0.368370 -0.391790 0.254140 -4.928200 0.067597 0.371470 0.368170 1.165500 0.092116 -0.877350 -0.745620 0.409030 1.567200 -0.238790 0.247550 0.763860
second 0.196700 0.578570 0.160940 -0.105010 -0.093901 -0.058395 1.388900 -0.150330 -0.098454 -0.374690 0.273090 0.780160 -4.045500 1.028100 0.259860 0.005631 0.496930 -0.312010 -0.650620 -0.515350 -0.924590 0.205860 0.576130 -0.264770 -0.840190
called -0.350090 0.409960 0.658860 0.020332 0.086684 -0.495490 1.305700 -0.344990 -0.224710 0.143410 0.248450 0.861880 -4.531600 -0.774070 0.274450 0.241910 0.800230 0.050623 0.159240 -0.263280 1.036200 0.761760 -0.254900 -0.709570 -0.180990
someone -0.290430 0.668920 0.052460 0.940810 -0.550440 0.004995 1.941700 -0.053597 -0.594520 0.722570 -0.395850 0.549780 -5.126900 -0.836220 -0.003375 1.080600 0.453690 -0.977410 0.340550 -1.268100 0.348610 -0.151240 -0.158820 0.129150 -1.586300
dangerous 0.097684 -0.347600 -0.686910 0.225330 0.414110 0.954540 1.496100 -1.088400 0.247330 0.111930 -0.327110 0.631210 -2.779000 0.510610 0.481870 0.054141 0.248160 0.242630 1.041900 -0.503720 0.367690 0.380010 -0.088679 -1.158600 -0.012584
wants -0.650360 0.742630 -0.413950 -0.472020 -0.712940 -1.023500 1.032600 -0.185530 -0.404910 -0.417840 0.489590 -0.155060 -4.657100 -0.626500 -0.334970 -0.258250 -0.136570 -0.847020 0.286120 -0.616840 0.785450 0.410970 0.060973 -0.508560 -0.370050
around -0.851390 0.179360 0.943520 0.248770 -0.458860 0.756640 0.876690 -0.919070 -0.174990 0.749760 -0.696190 0.518070 -4.998900 0.408400 -0.292640 0.602320 -0.108820 -0.958030 -0.072445 -0.708910 -0.096220 -0.408390 0.830190 -0.791450 -0.024732
syringe -0.591580 0.090846 0.327540 0.565380 0.299590 -0.029603 -1.095100 -1.634600 1.125900 0.064624 0.624890 0.535040 -0.810610 -0.557690 0.164780 0.298050 1.415400 0.842430 1.061300 0.454820 -0.505070 0.041624 0.712350 0.028390 -0.791230
corona -1.383200 -0.325730 0.770300 0.192380 -0.189780 0.123530 -0.686870 1.087800 0.322860 -0.764200 0.656380 -1.502500 -2.068200 0.446470 0.535020 -0.231200 0.285230 0.204880 1.000700 0.497660 -0.188350 0.199760 0.701710 -0.482470 0.020183
likely 0.241250 0.416750 -0.650800 -0.733450 -0.074795 0.542990 1.081000 -1.398700 -0.194870 -0.145250 0.437840 0.580420 -3.352500 0.968890 0.229100 -0.092274 0.112730 -0.167790 0.730190 -2.006600 0.601670 0.361580 -0.159190 -0.384950 -0.606120
received -0.611390 0.829890 -0.424190 -0.548270 0.865980 -1.269800 0.511900 -0.880560 -0.883420 -0.692430 1.233100 0.907150 -2.984400 0.700110 -0.181420 -0.355180 1.497200 0.592700 -0.085368 -1.183900 0.022076 -0.768750 -0.743200 0.344780 -1.034300
million 0.716110 1.028600 -0.125450 0.257830 0.143060 -0.547860 0.199210 -0.750620 -1.365500 -0.134420 1.444600 -0.134990 -3.895100 0.683550 -0.643010 -0.616480 0.026494 -0.250210 -0.051375 -0.050346 -0.704690 -0.573310 0.436100 -0.776910 -0.955360
wait -0.266710 0.931210 0.318780 -0.707740 -1.149900 -0.495120 2.261700 0.089601 -0.572500 -0.157100 -0.705330 0.111050 -4.281500 0.169440 0.304020 0.161440 0.632820 -0.951780 -0.883340 -0.518750 -0.418580 0.219000 0.522570 0.964790 0.324140
rare 0.425770 -0.786800 -0.917030 0.367890 0.478960 1.008200 0.661730 -0.413250 -0.310230 -0.249410 0.348900 0.861880 -2.784000 0.009980 -0.183800 0.908150 1.174600 0.504680 -0.530840 0.940230 -0.423970 -0.053987 -0.932960 -0.469490 -0.282830
media 0.857830 0.340100 -0.295080 -0.873350 0.914940 0.424770 -0.022360 0.868210 0.493500 -0.083462 0.554760 -1.275600 -3.608200 0.202360 0.760680 0.677580 0.154360 0.769240 0.308040 -0.433210 -0.068844 -1.128700 -0.812640 -0.614440 -0.693610
prevent -0.020754 0.508150 -1.493400 1.292400 0.236840 -0.020919 0.761770 -1.669600 0.410650 0.833050 0.380990 0.093700 -2.784600 -0.101540 0.726750 -0.043798 -0.352350 -0.215180 1.509300 -2.248600 -0.603000 0.426820 0.198150 -0.735000 -0.154000
ever 0.115970 0.066013 0.301730 -0.655420 0.021744 -0.452970 2.100000 -0.194270 -1.032000 -0.663470 0.303980 0.401250 -4.867700 0.145010 -0.212280 1.098700 0.653650 -0.372880 0.151310 -0.630250 0.230520 0.609880 0.121550 0.463320 0.200910
thing 0.169750 -0.020645 0.212250 0.064267 0.392140 -0.044754 2.234100 -0.614790 -0.557640 -0.172590 -0.266280 0.444210 -4.873300 0.203170 0.392830 0.842040 0.604240 -0.473500 0.064533 0.109960 0.434130 0.538100 0.099847 0.391100 -0.299410
few 0.477840 1.015000 0.757310 -0.008110 0.015820 0.636800 1.137100 -1.140600 -0.664910 -0.226630 -0.059544 0.092943 -4.476300 1.093000 -0.007288 -0.106260 0.451650 -0.854470 -0.083650 0.006926 -0.432840 -0.608710 0.107910 0.255340 -0.630330
caused 0.291340 0.338160 -0.742870 0.859250 -0.212050 0.034269 1.198600 -1.366400 -0.469770 0.964050 0.585920 1.102700 -2.464900 0.946110 1.554200 0.611750 0.277750 1.161700 1.324200 -1.542100 0.280860 0.210930 0.720090 -0.643640 -0.216490
drug 0.289780 1.332300 -0.674820 0.469960 1.397200 -0.751570 0.632630 -1.342300 0.690940 0.675590 0.801440 -0.220460 -3.224400 -0.200300 0.698080 0.145910 0.938240 0.543300 1.079900 -0.454670 0.489670 0.730180 -0.307420 -0.958580 0.991440
trying -0.409060 0.852940 -0.063391 -0.237780 -0.449430 -0.095257 1.601100 -1.182400 -0.038148 -0.086246 -0.407420 0.377900 -4.895900 -0.832830 -0.149040 0.545510 0.174370 -0.650760 0.135120 -1.580700 0.383570 0.539130 0.521330 0.002719 -0.486310
weeks -0.233000 0.887800 0.863420 -0.943670 0.213310 -0.000745 1.529500 -0.981240 -0.970440 0.129160 -0.138040 0.420600 -3.805400 1.199900 0.880390 -0.447050 0.327110 -0.421150 -0.643370 -0.949520 -1.043800 -0.035107 0.496720 0.584370 -0.071834
laughing -0.274150 0.007103 1.382600 0.538800 -0.006622 -0.136640 1.820900 -1.032700 -1.262300 1.002600 -1.076500 1.190000 -3.253400 -0.931870 0.713600 0.808940 -0.388910 0.034088 -0.878580 -1.419900 0.613180 0.679890 0.530140 -0.008679 -0.262440
u 0.453200 0.955970 -0.151880 -0.762010 -0.440160 0.031701 0.282190 1.964600 -0.646870 0.489620 -1.093900 0.001304 -4.750300 0.140030 -1.443900 -0.003086 -0.473950 -0.519140 -0.544100 0.482640 -0.076634 -0.064356 0.146660 0.484160 0.115410
least 0.494570 0.269380 0.280720 -0.451800 -0.636330 0.216950 1.386000 -0.552610 -0.604920 0.379370 -0.006654 0.336710 -4.325300 0.740090 0.378010 0.100610 0.879570 -0.661100 0.123700 -0.935580 0.113490 0.440640 -0.145450 0.015325 -0.868360
floor -1.212700 -0.434680 1.317800 -0.064299 0.249000 0.235140 0.468850 -0.937760 0.589250 0.726890 -0.300520 -0.041773 -3.670000 -0.137090 0.368050 0.228970 0.177790 0.110650 -0.603100 -0.426420 -0.673030 -0.035553 1.546200 0.055418 0.013772
i -0.260790 0.591080 0.616220 -0.703680 -0.851590 -0.232380 1.048100 0.066642 -0.549070 0.700470 -0.872210 -0.013954 -5.967100 -0.431060 -0.915400 0.537440 0.570990 -0.271810 -0.841780 -0.596820 0.451600 0.340970 0.076869 0.228400 0.275800
done -0.265360 1.546700 0.398050 -0.557640 -0.051273 -0.090431 1.266300 -0.149030 -0.724690 0.390070 -0.256640 0.878590 -4.156800 -0.240980 0.539710 -0.426470 0.569430 -0.644090 -0.843170 -0.942120 -0.243630 0.427960 -0.343020 1.442300 -0.308030
full 0.038537 0.454550 0.385820 -0.307030 1.022300 1.043700 0.903840 0.644820 0.099447 0.200730 0.319830 -0.032288 -3.595400 0.479720 -0.006176 0.055716 0.475640 -0.335980 -0.136330 -0.067182 -1.109100 -0.052755 0.182740 0.006368 0.009262
making -0.252580 0.643430 0.225310 0.272180 0.324040 0.521680 1.710500 -1.190900 -0.395650 -0.558470 0.044747 0.277260 -4.481700 -0.575440 0.292080 -0.101000 0.203020 -0.768880 -0.089925 -0.687390 -0.198880 0.149650 -0.350300 -0.062823 -0.306410
! 0.404900 -0.876510 -0.233620 -0.348440 -0.097002 0.408950 1.692800 1.705800 -1.293000 0.700910 -0.124980 -0.759980 -3.158600 0.140810 0.572550 -0.460970 -0.757210 -0.724140 -1.407100 -0.172240 0.009932 -0.457110 0.074886 1.203500 1.161400
here -0.778690 0.725940 0.350240 -0.516550 -0.160230 -0.268970 1.608500 -0.122810 -0.444920 0.108260 -0.673000 0.493630 -4.911800 -0.126040 0.244470 -0.061021 -0.099229 -0.720070 -0.506530 -0.288600 0.101940 -0.780150 0.364930 0.256570 0.277680
while -0.943240 0.398790 0.919640 0.271540 -0.032845 0.120080 1.428400 -0.933940 -0.192770 0.656740 -0.038430 0.527230 -4.615600 -0.176990 0.253940 0.599090 -0.371510 -0.385440 -0.250830 -1.166800 -0.354810 0.054216 0.303690 -0.393490 -0.041708
force 0.156310 0.013738 -1.726600 0.570510 -0.475760 0.128730 0.395480 -0.641220 1.201700 -0.091980 -0.010010 -0.007645 -3.631600 0.669420 0.167050 1.096500 -0.268220 0.168490 -0.428660 0.112500 0.216300 -0.148930 0.648060 -1.103200 -0.237760
reported 0.599920 0.593020 1.116900 -0.536910 -0.268390 -0.247450 0.247940 -0.789390 0.469250 0.881070 0.700270 0.984290 -2.317800 1.583300 0.796650 -0.519120 0.376050 0.919540 0.250500 -1.464000 0.919540 -0.890160 0.682120 -1.521800 -0.609750
fact 0.306730 0.226310 0.119830 0.205550 -0.152930 -0.183330 1.697500 0.363800 -0.358560 -0.023718 0.024788 1.076200 -3.622200 -0.124090 -0.108760 0.350180 -0.071784 -0.319800 -0.003186 -0.222870 -0.029263 0.602150 -0.980010 -0.046023 -0.983150
needs -0.719560 0.692990 -0.330290 -0.744810 -0.124340 -0.768860 0.937370 -0.498960 -0.169270 -0.451060 0.275700 -0.336070 -4.621400 -0.496770 -0.058567 -0.019002 -0.466940 -0.334090 0.420440 -0.633130 0.425650 0.191360 -0.026866 0.015202 -0.167460
approved -0.432390 0.872950 -0.788380 -0.988620 0.606510 -1.672500 0.007369 -1.482700 0.313580 0.102040 0.745220 0.211420 -2.327200 0.095180 0.451660 -0.805120 0.632110 0.306420 0.341400 -0.933130 -0.031126 -0.264340 0.008142 0.266810 -0.456460
skin -0.818550 -1.102000 -0.668760 0.512830 1.119300 0.635590 0.901980 -0.610280 0.447520 0.538350 0.209700 -0.031888 -3.595700 -0.663860 -0.525650 0.044554 0.604780 -0.394670 1.106700 0.463200 -0.673260 0.816050 0.841780 0.751240 -0.698540
come -0.981260 0.458230 0.201170 -0.405540 -0.976080 -0.549410 0.942780 0.072537 -0.371080 0.122740 -0.195090 -1.804500 -4.673300 0.029757 -0.325050 0.723650 -0.501790 -0.495010 -1.103700 -0.997580 0.277280 0.218630 1.034900 0.161520 0.370090
shit 0.673520 0.752990 0.430630 0.141360 0.326050 0.667470 1.278100 -0.264090 -0.718090 0.469300 -1.119200 0.990170 -5.234200 -0.611300 0.683330 0.714030 0.566210 -0.764940 -0.248370 0.396460 0.896680 0.937610 1.205300 0.320510 0.431770
population 0.154890 -0.687400 -1.111100 -0.324390 0.482940 0.149240 0.417980 -1.764600 -0.279480 0.798910 0.940020 -0.696460 -2.569900 1.393800 -0.220570 0.145180 0.045054 0.474820 0.622980 0.094696 0.402490 0.063464 -0.254840 -1.297800 -0.330560
chance 0.363280 0.126900 -0.644570 0.157190 -0.190300 0.190150 0.738010 -0.260040 -0.292430 -1.507300 0.181710 -0.893140 -3.885800 0.573620 -0.261390 0.159570 -0.434730 -0.350020 -1.386500 -0.503090 -0.772550 -0.244520 0.381150 0.665130 -0.876570
bad 0.413880 0.022308 0.056536 -0.010503 0.273950 0.713420 1.641400 -0.111880 -0.262490 0.107830 -0.951910 0.404140 -4.630300 -0.188660 0.603440 0.248910 0.367940 -0.503130 -0.486550 -0.211420 0.387590 1.041100 0.426950 0.286600 0.023210
research 0.380540 0.565990 -0.815050 -0.526650 1.321900 -0.602710 0.980220 -1.378100 1.639100 -0.043452 0.020539 -0.067625 -3.391600 0.482260 1.077300 -0.587040 0.623860 0.811160 0.237430 -0.710560 -0.250320 -0.654480 -1.490300 0.019451 -0.447860
protection -0.485170 0.077303 -1.891400 0.714440 1.084100 -1.148500 -0.019444 -1.233800 0.914190 0.558830 0.919460 -0.126830 -3.016400 0.444320 0.202460 0.387880 0.333120 0.411120 0.452570 -0.042966 -0.109040 -0.332200 0.249230 -0.457080 -0.505380
sick -0.293480 0.603380 0.494020 -0.415600 0.448210 0.775170 2.040300 -0.316790 -0.879810 0.437610 -0.767890 0.960080 -3.656100 -0.350670 0.741860 0.064137 0.533950 -0.434260 -0.125190 -0.755480 0.192800 1.025100 0.579840 0.143460 0.471930
spread -0.065948 0.396010 -0.852320 0.475450 -0.302200 -1.121500 1.251400 -0.808190 -0.555830 0.604030 0.037863 -0.036060 -3.048600 0.258770 -0.680950 0.326930 -0.002070 -0.541520 0.235330 -0.620670 -0.764270 -0.369320 0.086342 -0.190100 0.012016
cannot 0.131910 -0.017260 -0.861390 -0.436480 -1.291400 -0.298950 1.733000 -1.039500 -0.022471 -0.031653 -0.200840 0.536760 -4.006000 0.340600 -0.210280 0.958260 0.242830 0.262680 0.598320 -1.349900 0.175520 0.522280 -0.216850 0.620660 -0.285870
rather -0.208070 0.256560 -0.705990 0.023463 -0.439030 0.983850 1.267600 -1.320700 -0.212230 -0.391370 -0.486350 0.584850 -4.423700 -0.105830 -0.224260 0.411680 0.517780 -0.452670 0.450650 -1.364200 0.226670 0.445710 -0.173950 -0.030130 -0.550120
eyes -0.997800 -1.126500 0.540640 0.846030 -0.022013 0.250280 1.833700 -0.275920 -0.486290 0.502880 -0.216090 0.978710 -3.954100 -0.065219 -1.107300 0.111810 0.088285 0.007801 0.372780 -0.525520 0.005344 0.626120 1.260400 0.463220 -0.691200
based 0.576210 -0.009716 -0.848800 -0.456600 0.643210 -0.362410 0.763860 -1.165300 0.520510 -0.291190 -0.383240 0.517760 -4.024700 0.122450 0.504450 0.121730 0.268480 0.329070 0.760590 0.272920 -0.168810 -0.727400 -1.138500 -0.333720 -0.613510
look -0.219330 -0.586200 0.326480 -0.276180 0.351540 0.430600 1.482000 -0.052709 -0.765850 -0.583360 -0.305860 0.259370 -4.916200 -0.839400 -0.281060 -0.036336 0.455340 -0.821100 -0.470890 -0.341410 0.654820 0.393810 0.587410 0.055259 -0.464090
nothing 0.161530 0.568400 -0.126680 0.356670 -0.427590 0.844190 1.749300 -0.473950 -0.774750 0.276100 -0.635750 0.719210 -4.810400 -0.101040 0.384740 0.465820 -0.023778 -0.078970 0.438960 -0.554800 0.181810 0.347670 -0.200720 0.765520 -0.355110
both 0.275720 0.397760 0.229260 -0.301470 -0.433180 0.288060 0.977830 -0.555920 -0.789040 -0.080460 -0.046929 0.579440 -4.767900 0.323070 0.090831 -0.195200 0.070737 -0.718880 0.238740 -0.238820 -0.030640 0.473560 -0.136630 -0.189130 -1.026300
companies 0.610690 0.910170 -1.215600 -0.812830 0.624860 -0.034511 -0.069537 -2.119600 1.138700 0.073371 0.929610 -0.467800 -3.565400 0.205930 0.009751 -0.688170 0.288200 -0.533710 1.230200 -0.639660 0.337950 -1.470000 -0.935680 -0.864080 -0.805430
high -0.024792 -0.072225 0.257610 -0.771330 0.397280 1.074500 0.864920 -0.421940 0.708300 0.148770 -0.619800 0.147750 -4.673300 0.465440 0.319980 -0.609740 0.263000 -0.088093 0.198760 0.150210 -0.391620 0.247200 0.539070 -0.240390 -0.286830
live 0.198190 0.172260 0.285880 -0.456730 -0.883960 0.026332 1.166800 0.737350 0.192100 -0.639130 -0.530350 0.074230 -4.290800 0.084804 -0.016509 0.059192 -0.756570 -0.047736 -0.828640 -0.098278 -0.943280 -1.052200 0.074826 -0.540220 1.086100
dies -0.213190 -0.202610 0.781670 0.478460 -0.216430 -0.655210 0.464300 -0.368910 -0.291570 0.030099 0.987320 0.694420 -2.699900 1.116300 0.568200 0.211800 0.311520 1.062500 -0.486480 -1.154000 0.965580 0.822590 -0.102710 -0.742840 0.499410
push 0.020073 0.559050 -0.577850 0.234190 -0.103100 -0.313880 0.659320 -0.422320 0.778370 0.340720 -0.264690 0.010671 -3.434300 0.263050 -0.173880 0.594070 0.034526 -0.806210 0.468290 -1.069600 -0.568470 0.388220 0.966520 0.060516 -0.715000
day -0.951010 0.505600 0.361390 -0.403370 -0.040042 -0.156470 2.278200 0.245000 -0.484520 -0.196280 -0.519550 0.217540 -4.703900 0.950370 -0.098481 -0.575520 0.072248 -0.953750 -0.694460 -0.054825 -0.867660 0.025728 -0.260510 0.755460 0.426880
anything 0.478410 0.395370 -0.321600 0.586390 -0.483160 0.114020 1.382900 -0.860810 -0.817690 -0.075026 -0.777160 0.582120 -5.275600 -0.540240 0.390190 0.394100 0.326820 -0.727400 0.497470 -0.884270 -0.062516 0.035716 -0.286770 0.641530 -0.574000
point 0.507250 0.070904 -0.792460 0.221100 -0.148170 0.812890 0.892950 -0.315470 0.247700 0.017796 -0.092942 0.388420 -3.961700 0.619480 0.844700 0.615730 -0.112570 -0.521650 -1.003700 -0.106120 -0.044024 -0.119750 0.424920 -0.157470 -0.780300
mask -0.777060 -0.576920 0.177880 0.197810 0.269020 0.215550 0.665860 -0.648740 1.143700 0.095005 0.787570 0.545980 -2.559900 -0.540030 0.006040 0.654650 0.494430 -0.401610 0.477290 0.323630 -0.698820 0.975130 0.590380 0.057852 -0.142840
protect -0.192950 0.410170 -1.355000 0.983080 -0.458360 -0.907700 0.436940 -0.320040 0.732200 1.145800 0.038241 0.238120 -3.438000 -0.104620 -0.789430 0.296790 0.116340 -0.616270 1.404000 -0.986780 -0.378810 0.424400 -0.681520 -0.670170 -0.746570
reports 0.795200 0.563240 0.139580 -0.268410 0.221660 -0.760830 0.635450 -0.994750 0.552690 0.123570 1.186700 0.919450 -2.704900 1.065600 1.350600 -1.029400 0.010319 0.864310 0.021631 -0.892210 0.382860 -1.140100 0.120850 -1.479800 -1.198000
lot 0.168070 0.483040 0.031292 0.390100 -0.051811 0.590980 1.254100 -0.730870 -1.080800 0.234170 -0.576390 0.283560 -4.614700 0.144850 0.173550 0.183390 0.357810 -0.746510 0.312870 -0.151560 -0.129930 -0.175710 -0.217260 0.217400 -0.741430
kids -0.186270 0.695920 0.585180 -0.338870 0.810600 0.232110 1.022700 -0.621240 -0.422210 0.128520 -0.435170 -0.251540 -4.483100 -0.211060 -0.319130 0.053166 0.457910 -0.532800 0.585420 0.048431 0.129310 0.098903 -0.479960 -0.771820 0.678550
symptoms -0.139470 0.803850 -1.250000 0.906150 1.282500 -0.215810 1.328900 -1.787400 0.027163 0.764820 0.228270 0.730600 -1.232900 0.431300 1.436300 -0.178110 0.117410 0.835380 1.760400 -1.397400 -0.316310 0.970180 -0.283390 0.076575 0.263310
killed -0.111080 0.766780 1.016200 0.268850 -0.548060 -0.781730 0.911520 -0.377380 -0.465200 0.954100 0.694730 1.362000 -3.663500 0.791830 0.215520 -0.065292 0.654700 0.405430 0.326770 -0.966950 1.134300 1.069700 0.324730 -2.143200 0.739330
next -0.247750 0.732750 0.561750 -0.983840 -0.273430 -0.328700 1.601800 0.183680 0.175970 -0.040885 -0.503870 0.448670 -4.585800 0.805210 0.745230 -0.132940 0.382470 -1.054700 -0.920560 -0.213800 -0.894280 -0.225420 0.114680 0.011966 -0.113570
kill 0.869610 0.672080 -0.098319 0.824990 -0.681690 -0.307330 1.051100 -0.277680 -0.242420 0.576940 -0.430340 0.634530 -4.111000 -0.472020 0.107900 0.489870 0.286400 -0.320980 0.154230 -0.571650 0.543630 0.844870 0.535830 -0.489170 0.792560
others -0.681390 0.307090 -0.312480 0.623410 -0.656680 0.371720 0.574740 -0.783840 0.483950 0.642600 -0.931440 0.173760 -4.158500 0.551530 -0.419080 -0.366010 -0.938560 0.020714 0.825800 -1.003100 0.183990 -0.848230 -1.337900 -0.626450 -0.143210
within -0.034387 -0.175220 -0.298300 0.572930 -0.183680 -0.235310 0.449190 -1.104700 -0.107470 0.373750 -0.257450 0.666290 -4.014800 1.402800 -0.009727 0.303090 -0.087954 0.545640 1.002600 -0.857010 -0.995480 -1.068800 0.023127 -0.116470 -0.642090
pharma -0.040292 0.315730 -1.460800 -0.828260 0.191330 -0.790410 -0.420170 -1.416000 1.598100 0.114970 0.197730 -0.499130 -1.712500 0.124230 0.569620 -0.806790 0.638600 0.522770 0.989040 0.862980 0.079879 -0.614710 -0.618200 -0.383160 0.096784
countries 1.081400 0.132920 -0.415020 -1.122300 -0.631560 -0.259220 1.026300 -1.818800 -0.347770 0.545880 0.130410 -0.817680 -3.113700 1.544300 -0.471040 -0.259210 -0.206130 -0.184060 1.356200 -0.145240 -0.483940 -0.589410 -1.152600 -1.506100 -0.324810
survival 0.100720 0.549540 -0.896070 0.041733 0.807850 -0.138770 1.159600 -0.918880 1.109800 -1.086100 0.564920 0.346570 -2.214700 0.166940 0.613700 0.676950 -0.024869 0.769990 0.912340 0.465270 -1.380900 -0.248920 -0.298080 -0.190300 1.186100
dont 0.661220 0.931850 -0.764900 0.148080 -0.799970 0.103440 1.324600 -0.558390 -0.431690 0.145760 -1.087000 0.301300 -4.817600 -0.858440 -0.575980 1.166900 0.123410 -1.189600 -0.607070 -0.155610 1.280600 0.504080 0.658220 0.396390 -0.184440
control 0.557110 0.481690 -0.674200 0.739670 1.071800 0.570900 0.198220 0.504610 0.672860 0.241960 0.203470 -0.709630 -3.803800 0.501540 0.758110 0.531770 0.116280 0.272750 1.413800 -1.169200 0.399510 -0.424930 0.889750 -0.337500 -0.401410
effect 0.180030 -0.686960 -0.474250 0.248610 0.299280 0.152430 1.195100 -0.440830 0.893880 0.213500 0.227640 0.826890 -2.713700 0.630120 0.893250 0.769720 0.493430 0.476420 0.567920 -0.019761 -0.737630 -0.302860 0.067973 0.344610 -0.503590
him -0.336720 0.661340 0.270100 0.925990 -0.735210 -0.713680 0.585950 0.051236 -0.966580 0.170680 -0.648520 1.056500 -5.653800 -0.348410 0.215540 -0.162740 0.391510 -1.008900 -0.189850 -1.010500 0.160370 0.593650 0.535130 -0.136990 -0.847960
such -0.315180 -0.221710 -0.300860 -0.128320 0.742420 0.593310 2.001600 -0.543500 -1.007700 -0.634860 -0.766350 0.609720 -4.426000 0.094273 0.304060 0.038931 0.564130 0.069480 -0.059174 -0.116160 0.329740 1.003900 -0.601350 -0.117500 -0.434940
feel -0.330000 0.067231 0.153260 -0.171060 -0.259230 0.942010 2.275900 -0.167560 -1.035400 0.588280 -1.050400 0.691820 -4.513700 -0.105590 -0.111950 0.324480 0.552720 -0.345680 0.289920 -1.465800 0.298030 0.818570 0.409760 0.864520 -0.221090
following 0.000280 1.383600 -0.379210 -0.297410 0.234210 -0.863150 1.049000 0.065580 -1.295600 0.443630 -0.080866 0.602740 -3.426300 -0.196610 -0.237260 -0.095734 -0.374690 -1.081500 -0.681680 -0.852320 -0.356030 -0.910890 -0.352900 -0.094251 -1.247600
read 0.905810 0.598950 0.063546 0.217280 0.214090 -0.940820 1.762800 -0.052928 0.119450 -0.039055 -0.225360 0.958490 -4.030900 -0.442520 0.111520 0.119990 0.356010 -0.022685 -0.452160 -0.879690 -0.058078 -0.437180 -0.826110 0.508950 -0.587870
elderly -1.280400 0.257170 -0.552070 0.265500 0.568930 -0.331490 0.164690 -1.268700 -0.093125 0.927820 -0.293100 -0.260430 -2.432500 0.515520 0.083600 -0.459730 1.028600 -0.415770 0.949110 -0.983260 0.845870 0.332780 -1.139400 -2.098400 -0.563700
doctor -0.544720 0.199200 0.593010 0.510370 0.468980 -0.656520 0.936210 0.504430 -0.079907 -0.557840 0.483130 -0.602830 -3.116100 -0.287310 1.393300 -0.305610 1.037500 0.709750 0.316730 -0.795390 0.454040 0.131550 -0.179160 -0.027830 0.103950
tone -0.794040 -0.730350 -0.237760 0.450320 0.939600 0.171470 0.314500 -0.406470 0.776760 -0.486820 -0.240430 0.836060 -2.874200 -0.292260 -0.437190 0.377690 0.602500 -0.006411 0.359470 0.600560 -0.134090 0.414060 0.943160 0.562200 -0.840780
knows -0.436970 0.434340 0.199060 0.098043 -0.497670 -0.512230 1.377200 -0.327060 -0.446980 -0.207280 -0.187760 0.861930 -4.602400 -0.270460 0.199910 0.315330 0.060149 -0.216450 0.748680 -0.032301 1.579900 0.573050 -0.195940 0.345080 -0.660390
evidence 1.300700 -0.032035 -0.454670 1.022200 0.392290 -1.231700 0.800720 -1.550200 0.323920 -0.246960 0.380670 0.704920 -2.927400 0.602240 0.487330 0.154810 0.316120 1.472600 0.435270 -0.931280 0.164100 -0.069377 -0.514020 -0.524450 -0.996860
become -0.211120 0.141260 -0.745990 -0.722440 0.291670 0.397730 1.283000 -0.403020 -0.229220 -0.538830 -0.270680 0.642170 -4.482200 0.193770 -0.463970 0.343400 0.344730 0.057185 1.398900 -1.439300 0.095111 0.441940 -0.831900 -0.753370 -0.463660
away -0.491190 0.320280 0.462560 0.200940 -0.795060 0.133830 1.226700 -0.367390 -0.464350 0.634310 0.145290 0.503510 -4.570200 0.402400 0.089386 0.239130 -0.083436 -0.904970 0.008849 -0.929570 -1.022100 0.032319 0.909570 0.132030 -0.519350
means -0.124280 0.190310 -0.506650 0.043551 -0.194160 -0.203960 1.594300 -0.763690 -0.677090 0.510430 -0.471940 0.349710 -4.085300 0.150270 0.266200 0.366390 -0.042854 -0.206640 0.449170 -0.531060 0.122900 0.289790 -0.482000 0.504250 -0.677970
little -0.824920 -0.388490 0.517270 0.684710 0.371410 0.494180 2.088600 0.000885 -0.915970 -0.684800 -0.696640 -0.333910 -4.475300 -0.514790 -0.331450 -0.020975 0.538600 -0.439690 -0.254130 -0.060034 -0.013038 0.606050 0.281610 -0.443570 -0.273800
young -0.452780 0.696340 -0.093927 0.062365 0.355170 0.287220 0.769690 0.798900 -0.100980 -0.817020 -0.561070 0.927800 -4.191800 -0.200290 -0.199640 -0.492370 0.068004 -0.512020 0.306520 0.245860 0.529770 0.994850 -0.778690 -0.978940 0.088289
probably 0.031466 0.418400 0.640060 -0.788510 -0.368860 0.143270 1.747100 -1.065800 -0.777110 -0.102560 0.222520 0.625340 -4.648200 -0.285660 0.332650 0.597680 0.654830 -0.381700 -0.006168 -1.082900 0.789700 0.651860 0.223060 0.245820 -0.394400
paid 0.284900 2.040800 -0.180210 -0.947940 0.796040 -0.452490 -0.102620 -1.454900 -0.629400 -0.262870 0.468790 0.315010 -4.037600 0.158310 0.078731 -0.572320 0.615640 -0.476420 -0.162530 -0.999850 0.094279 -0.020061 -0.081194 -0.132040 -0.251220
natural -0.888990 -1.200400 -1.143600 0.503880 1.550700 1.189100 0.641390 0.184440 0.467950 -0.033912 0.373290 -1.201600 -3.299600 -0.305730 -0.035589 -0.243630 0.095994 0.491740 1.375300 0.123510 -0.690200 0.604700 -0.228030 0.336310 0.025065
possible 0.329190 -0.180870 -1.647700 0.491640 -0.231560 0.346900 1.228300 -0.878990 -0.329610 -0.370220 0.131990 0.136000 -3.523100 0.923640 0.965020 1.056300 0.136390 0.224680 -0.976490 -0.664240 0.014327 -0.430810 0.161190 -0.237530 -0.721010
question 1.113700 0.218690 -1.055000 0.621410 0.472240 -0.296600 1.567800 -0.659800 0.202780 -0.152930 -0.134430 0.394670 -3.511400 0.054320 0.643620 0.900030 0.159450 -0.338520 -1.523300 0.111920 1.101100 -0.283280 -0.315900 0.103820 -1.064000
tests 1.410600 0.951080 -0.233440 -0.188210 0.654840 -0.286580 0.934370 -2.187100 0.420460 0.122410 0.347750 -0.104340 -2.614400 0.971110 1.521000 0.293890 0.109010 0.046022 0.006829 -0.671990 -0.627580 0.161270 -0.116110 0.367220 -0.095246
seems -0.066922 -0.275470 -0.151220 -0.834590 -0.161990 0.594070 1.467300 -1.026400 -0.521810 -0.246390 -0.266750 1.194300 -4.211300 0.328560 0.680550 0.393900 0.121800 0.279130 0.287430 -0.774560 0.680690 0.090383 -0.224070 0.419850 -0.786860
vulnerable -0.281380 -0.729810 -0.903780 0.261640 0.575260 0.670490 -0.229070 -0.616120 -0.353810 0.241030 -0.564840 -0.779890 -2.179100 0.482040 -0.034207 0.467500 0.126810 0.317790 1.816100 -1.532400 0.430620 0.364370 -0.308470 -1.134200 -0.830030
heart -0.676660 -0.426670 0.083360 1.188100 -0.119750 -0.191920 1.763500 0.318540 -0.168890 0.006029 -0.227600 0.449280 -4.422000 0.204800 -1.098700 0.329560 -0.435230 0.245240 0.517760 -0.547560 -0.637360 0.626780 0.527510 0.531860 -0.178660
sign -0.269240 0.515450 -0.911910 -0.201170 -0.236650 -0.358920 0.715680 0.169320 0.353350 -0.262470 0.764180 0.823520 -3.828200 0.249980 0.308740 -0.119530 0.202450 -1.168900 0.009683 -0.880830 -0.479610 -0.079361 0.048311 -0.494730 -1.313500
reason 0.435250 0.415650 -0.004902 0.334940 -0.093569 0.023100 1.869900 -0.573240 -0.619370 0.115420 -0.903170 0.598460 -4.368900 0.150060 0.037120 0.525170 0.052408 -0.222820 0.573830 -0.551420 0.652940 0.437880 0.370330 0.127560 -0.739180
works -0.227690 0.223290 -0.169100 -0.156300 0.496780 -0.285780 1.095600 -1.223000 0.156810 -0.078043 0.200480 0.858710 -4.104800 -0.240110 0.402570 0.082688 0.470400 0.057267 0.569880 -0.255550 0.099283 -0.647760 -0.057219 0.940550 -0.175830
gets -0.697530 0.165700 0.491440 -0.955580 0.435600 -0.301330 1.342800 -0.270330 -0.804250 -0.024222 0.969660 1.093000 -4.461100 -0.104720 0.237430 -0.002940 0.520000 -0.102510 0.399650 -1.097600 0.601210 0.823410 1.037400 -0.071626 -0.675040
hope -0.765990 0.808360 0.015636 -0.229720 -1.282200 -0.311360 1.832900 0.191170 -0.857360 -0.226880 -0.354710 0.619720 -4.660000 0.507180 0.182810 -0.310710 0.431630 -0.735900 -0.177860 -0.232020 0.212540 0.007749 -0.160210 0.821010 -0.652790
found -0.370000 -0.031164 0.857640 0.038775 -0.114460 -0.611540 1.244700 -0.581610 -0.549860 0.461040 0.884080 0.431180 -4.445800 -0.325340 -0.059401 -0.119560 1.411800 0.662320 0.199060 -0.692590 0.348270 -0.227400 -0.107790 -0.330540 -0.098667
things 0.602260 0.003487 0.103180 0.926990 0.224770 0.589870 2.048100 -0.766640 -0.873500 -0.329250 -0.666320 -0.076177 -4.926100 0.342210 -0.214140 0.737690 0.168990 -0.497010 0.578740 -0.511920 0.224270 -0.050183 -0.428410 0.356630 -0.637320
family -1.193000 0.630690 0.168830 -0.316110 0.017884 -0.250700 1.581000 0.368600 -0.239500 -0.024608 -0.327680 -0.226140 -4.378300 0.518030 -0.008799 0.078987 0.130640 -0.888700 -0.006344 0.226190 0.291860 -0.270920 -1.041000 -0.624460 -0.070521
causes 0.134060 -0.222130 -1.493800 1.571400 0.586880 0.612750 1.539800 -1.601800 -0.119990 0.617820 0.794810 0.294090 -2.068100 0.739430 1.188100 0.764060 0.052244 0.735710 1.283100 -0.933850 0.254460 0.147390 0.297110 -0.496420 -0.140790
took -0.398190 0.928490 1.119400 -0.132170 -0.298080 -0.528480 1.061400 -0.708030 -0.485390 0.137130 0.408490 0.834840 -4.503300 0.036300 0.509320 -0.017931 1.001600 -0.059297 -0.267230 -0.685430 0.189090 0.601620 0.786650 0.075014 -0.551790
people. 0.071801 0.656370 0.369890 0.552070 -0.188340 -1.151200 -0.134130 -2.433100 0.272710 0.310200 -0.533700 -0.292220 0.265680 -1.302000 1.164100 -0.020077 0.562480 -0.189530 1.661000 -0.009508 -0.273150 0.211570 -1.587700 -0.372800 -0.686300
now. -0.421760 0.632430 -0.571670 -0.509040 -0.601220 -0.968360 -0.623280 -1.960300 0.048558 0.185750 -0.958020 0.210480 -0.296670 -1.084600 1.226000 0.159420 0.183420 0.157830 0.993170 -0.458460 -0.240160 -0.101510 0.003628 0.634990 -0.027398
show 0.487250 0.121990 1.016900 -0.392380 0.387140 -0.058022 1.243300 0.477770 0.225410 -1.495700 -0.579370 -0.712780 -4.368300 0.167010 -0.042860 -0.126160 -0.766050 -0.425550 -0.923100 -0.488380 -0.457700 0.103600 -0.066237 -0.233800 0.808290
women -0.326830 -0.317940 -1.047800 -0.765830 0.743170 0.147200 0.446710 -1.063400 0.008542 0.049755 0.107880 0.024155 -4.811100 0.239400 -1.113700 -0.327720 -0.197770 -0.629360 0.871200 0.275610 0.075433 0.905990 -0.770070 -1.517500 -0.574590
known -0.093950 0.387540 -0.051054 -0.079027 0.026966 0.067305 1.056200 -0.795970 -0.484680 -0.205360 0.213950 0.996440 -3.752900 0.644620 -0.460160 0.582270 0.884410 0.379770 1.117900 -0.735510 0.952370 0.622550 -0.796890 -0.573140 0.157270
them. 0.354680 0.603730 0.204120 0.731600 -1.320400 -1.102600 -1.221400 -2.146200 0.032637 -0.042874 -0.488700 0.369470 -0.092160 -1.437100 0.659860 -0.395890 0.112710 0.127140 1.716500 -0.684320 -0.241270 0.342500 -0.652410 -0.128480 -0.818460
millions 0.802920 0.777930 -0.816660 1.002400 -0.120750 -0.143560 -0.408520 -1.625600 -1.478700 0.092701 1.129300 -0.305950 -3.120000 1.018100 -0.734140 0.284520 -0.139520 -0.178250 -0.582640 -0.091821 -0.040737 -0.877160 -0.244260 -1.181200 -0.347070
clinical -0.633590 0.870990 -1.177900 -0.698900 1.649900 -0.375410 0.393060 -1.336500 1.842900 -0.564280 -0.431530 -0.089523 -2.020500 0.372310 1.968800 -1.111600 0.222240 0.960860 0.593230 -0.806110 -0.572280 0.167010 -0.931250 -0.146670 -0.406930
forced -0.424930 0.874100 -0.377930 -0.213290 -0.119570 -0.561850 0.685020 -1.617700 0.250290 0.161120 0.204110 0.231720 -2.839800 0.275570 0.060561 0.226710 0.223740 -0.199370 0.273520 -2.017900 0.500270 0.779570 0.107140 -1.113400 -0.340600
gonna -0.414810 1.270000 0.575500 -0.922540 -0.766310 0.227940 1.932500 -0.700740 -0.512930 -0.536450 -0.556580 0.554120 -4.953200 -0.508040 0.065018 0.292660 0.487010 -1.018000 -0.549380 -0.947170 0.232310 0.859210 0.949700 0.466540 0.236840
news 0.980810 0.181420 -0.223000 -1.091400 0.080287 -0.894990 1.106600 0.412860 0.702930 0.070491 0.705020 0.372920 -3.725400 0.314500 0.255190 -1.122500 -0.490390 0.181060 -0.507660 -0.181400 -0.125720 -1.144200 -0.806930 -1.684300 -0.023435
dying -0.287450 0.013715 0.631290 0.278040 -0.157090 -0.237860 1.809600 -1.126700 -1.136400 1.089800 -0.637550 0.881510 -3.240000 -0.519670 0.667960 0.540690 0.201280 0.462840 -0.342620 -1.065000 0.546410 0.663230 0.272710 -0.069007 0.538070
comes -0.553880 -0.003179 0.075313 0.535070 -0.082280 0.043140 1.619700 -0.097917 -0.449080 -0.486380 0.570620 -0.092369 -4.236200 0.436120 0.847580 0.918560 -0.119560 -0.079370 0.701360 -0.379460 0.490010 -0.242320 0.609650 0.501080 -0.017593
me. -0.058783 0.574180 -0.376510 0.595340 -0.929520 -1.214000 -0.872420 -1.520100 -0.233710 -0.005448 -1.056200 0.265580 -0.997990 -1.562100 0.095093 -0.216570 -0.059397 -0.390860 1.024800 -0.374690 0.303050 -0.335970 -0.436260 0.403450 -0.722080
linked 0.667070 0.663420 -0.744710 0.087395 0.570050 0.147010 0.331330 -1.010400 0.009387 0.459850 1.007100 1.435800 -2.004200 0.331220 0.047485 -0.504440 0.308980 0.721080 1.556500 -1.175800 0.015672 -0.411920 -0.177830 -1.044800 -0.023372
fully -0.827100 0.390970 -0.425790 -1.277900 -0.012436 0.316410 0.173830 -1.080600 -0.080433 -0.005220 0.103810 0.731900 -3.649200 0.070969 -0.620460 0.857920 0.848670 0.779360 0.775890 -1.651300 -0.263520 -0.152990 -0.170340 0.403330 -0.779030
find -0.008548 0.210820 -0.278460 0.025913 -0.139160 0.095550 1.207700 -0.677730 0.068300 -0.355800 -0.426180 0.141310 -5.225800 -0.541630 -0.584500 0.254480 0.826740 -0.374520 0.198100 -0.939540 0.180120 -0.504690 0.000490 0.262020 -0.420470
line 0.262500 0.561490 0.428300 -0.353750 0.701230 0.205200 1.022600 0.773160 0.970540 0.657250 -0.047574 0.707340 -3.417200 -0.204000 -0.007835 0.004374 0.117470 -0.760090 -0.185760 0.043231 -0.321080 -0.760990 0.686670 0.080376 -0.483910
mandatory -0.078137 0.976870 -0.765640 -0.383470 0.859540 -0.644300 0.423020 -2.291300 0.245510 0.082764 -0.129470 -0.094550 -1.681500 0.425750 0.815040 -0.390740 0.253530 -0.296630 0.039433 -1.187200 -0.743220 0.547950 0.001145 -0.515950 -0.405100
coming -0.720520 0.776060 0.580060 -0.764660 -0.450050 -0.214020 1.504700 -0.409180 -0.439510 -0.144050 -0.127200 0.722840 -4.372900 0.510530 0.420360 0.035156 -0.108930 -0.756330 -0.631820 -0.351420 -0.318290 -0.713420 0.516930 0.101080 0.480180
part 0.207480 -0.224420 -0.197300 0.071499 0.264920 0.080082 1.536600 0.149100 0.673780 -0.384010 -0.423750 0.528620 -3.838100 0.560020 0.019887 0.627390 -0.125550 0.074071 -1.304500 0.256150 -0.283880 -0.497990 -0.206160 -0.421580 0.006302
understand 0.913220 0.504240 -0.753620 0.072291 -0.424210 -0.150700 1.906400 -0.700560 -0.310370 -0.006462 -1.113300 0.389640 -4.687600 -0.556050 -0.096915 0.765900 0.180730 -0.253840 0.685390 -0.674010 0.960440 0.524910 -0.486160 0.301910 -0.720870
legal 1.115600 -0.377730 -0.390170 -0.512970 1.214400 -0.088937 0.255160 -0.242470 0.743160 -0.792490 -0.474310 -2.211500 -3.089300 -1.018700 0.557100 -0.709400 -1.099900 0.684940 -0.444580 -1.245300 -0.118150 0.426860 -0.178440 0.546420 -0.310680
common 0.792070 0.062946 -0.682770 0.488240 0.461920 0.117890 1.284400 -0.964690 0.109050 -0.062745 -0.483610 0.299720 -3.523400 0.391190 0.509570 -0.082386 0.434070 0.513280 0.992370 -0.027394 0.295330 0.329980 -0.669080 -0.320200 -0.628170
patients -0.527260 0.929270 -1.669000 0.536310 0.971180 -0.252430 -0.191140 -1.884400 0.067291 0.794160 0.421840 -0.777720 -2.236000 0.648300 0.762000 -0.349170 0.223490 -0.106000 0.884830 -1.574100 0.441110 -0.064479 -0.899440 -0.738090 0.172250
age 0.557120 -0.118590 -0.289370 0.486890 0.449730 -0.092888 1.031200 -0.515740 0.180550 -0.155420 -0.197620 0.023313 -3.572800 0.369450 -0.150640 0.116290 -0.098768 0.205530 -0.110310 -0.131640 0.239990 0.562380 -0.244210 -0.187180 -0.345790
able -0.227990 0.852140 -0.711650 -0.351270 -0.667240 0.119130 1.136100 -0.862800 0.073878 -0.599250 -0.366710 -0.081203 -4.471600 0.018740 -0.428800 1.001500 0.614070 -0.509760 0.536550 -1.903100 -0.157110 0.093078 0.159530 0.515770 -0.586880
worse 0.333620 0.563020 -0.070959 -0.075496 0.049478 0.692940 1.543900 -1.105200 -1.082200 0.393230 -0.583630 0.678950 -3.791300 0.327120 1.241200 0.314170 0.247100 0.128620 0.648270 -1.177800 0.170520 1.086200 0.453320 0.126480 -0.411620
that. 0.636190 0.851940 0.516690 1.064200 -1.658900 -1.273500 -0.584070 -1.771100 0.312530 0.167180 -0.951290 0.527970 -0.266110 -1.202400 1.007400 -0.095659 0.183970 0.372510 1.472600 -0.316490 0.167550 0.983500 -0.626260 0.071222 -0.271360
different 0.883530 -0.105510 0.419760 0.074078 0.509530 0.991240 1.309000 -1.400000 -0.396530 -0.095250 -0.589640 0.072229 -4.808100 0.474990 -0.190570 0.456580 0.470220 -0.309370 0.486880 0.578640 0.027069 -0.218750 -0.545000 -0.053952 -0.992760
one. 0.771400 0.731610 0.908440 0.007529 -0.194110 -0.981300 -0.098292 -2.132300 0.766510 0.006786 -0.288430 -0.045125 -0.411600 0.028932 0.047389 -0.188660 0.274910 0.672420 1.658800 0.092686 -0.586680 0.711630 0.369410 0.294520 -1.098300
mean 0.325490 0.235580 -0.279240 -0.043360 -0.444120 -0.235770 1.748600 -0.199800 -1.112500 0.255130 -0.761970 0.472090 -4.657900 -0.637380 -0.336200 0.185340 0.496010 -0.962570 0.490040 -0.255370 0.779280 0.625750 0.269230 0.740170 -0.613900
whole -0.157890 0.687290 1.057200 0.333850 0.172550 -0.035298 1.494700 -0.792660 -0.401080 0.347440 -0.632470 0.270860 -4.925900 0.313230 0.240460 0.319430 0.940970 -0.053345 -0.197030 0.087532 -0.667990 0.425750 0.508780 -0.082606 -0.313090
